SVM-light Version V6.02
0 # kernel type
3 # kernel parameter -d 
1 # kernel parameter -g 
1 # kernel parameter -s 
1 # kernel parameter -r 
empty# kernel parameter -u 
203831 # highest feature index 
18457 # number of training documents 
4934 # number of support vectors plus 1 
0.30839452 # threshold b, each following line is a SV (starting with alpha*y)
-0.0013999243350781703787433229990711 8117:1 8784:1 9153:1 22281:1 32971:1 34334:1 42850:1 47003:2 51280:3 60070:1 68487:2 68637:1 75156:1 77926:1 82317:1 83385:1 97008:3 102405:4 104347:1 107285:1 116626:1 119063:1 121124:1 123571:1 124082:1 125713:2 128650:5 129675:2 134378:1 137668:4 147398:1 148047:2 151511:1 153040:1 160043:1 175768:1 180061:2 186479:1 188063:1 190550:1 201024:1 203002:1 #
0.0013999243350781703787433229990711 253:1 5167:1 50053:1 53205:1 60070:1 70894:1 71034:1 79791:1 82796:1 88050:1 92975:1 102405:1 105938:1 123887:1 126532:1 131944:1 137647:1 141910:1 144031:1 146407:1 148536:1 160009:1 164937:1 #
-0.0013999243350781703787433229990711 8149:1 10023:1 52463:1 54093:1 68637:1 86798:1 119063:1 130294:1 135113:1 165161:1 169455:1 186479:1 #
0.00031024540945055100122154656538953 296:1 623:1 1169:1 1400:2 2179:1 4654:2 5247:1 6120:2 7484:1 8117:1 9239:1 9303:1 9982:1 10194:1 10237:1 10466:1 11893:1 13092:1 13512:1 14862:1 15865:1 15963:1 16485:1 18170:1 18843:1 19888:1 20295:1 20299:1 20839:1 21787:1 22139:1 22515:1 23546:1 24253:1 26101:1 26111:1 27392:1 27486:3 27677:1 27935:1 28425:1 29222:1 29850:1 30489:1 31446:1 36876:2 38412:2 40330:2 40465:1 42426:1 43189:1 43412:1 44321:2 45326:1 45461:1 45477:1 45607:1 46259:1 48456:10 49447:1 50116:1 50822:1 50987:1 51280:15 52092:1 52484:2 54017:2 54619:1 54963:1 55606:1 56480:1 58880:1 60070:8 61104:1 62420:1 62601:1 62986:1 63643:1 63778:1 64459:1 64829:1 65425:1 65584:1 65831:2 65920:1 67786:1 68260:2 68637:1 71977:1 72754:2 73376:1 73879:1 74165:1 74309:1 74967:1 75834:1 76366:1 77855:1 78121:1 78259:2 78878:1 79305:1 82038:1 82317:8 82361:1 82684:1 83030:2 84370:1 85495:2 85500:2 87043:1 87215:1 88309:1 89236:1 90278:1 90794:1 91107:3 91377:3 91480:23 91820:1 92151:3 92961:1 93254:1 95106:1 95407:1 96360:2 97832:1 98715:3 99699:1 100012:1 100562:8 100735:1 101494:1 101917:1 102405:9 102892:1 103402:3 103517:1 103832:6 104347:2 105938:9 105963:2 108987:1 109785:1 110079:2 111245:1 111309:1 111865:1 111973:1 112438:1 112575:1 114188:1 114706:1 114791:1 115271:1 115383:1 115655:3 115912:4 115971:2 116722:1 119063:13 119275:2 119548:1 120190:1 121993:1 122533:3 123129:1 123571:3 123638:1 124082:4 124790:1 126776:1 128650:22 128659:1 129025:1 129587:1 129717:1 130057:1 130812:1 131245:1 131474:3 131944:2 134222:1 134378:1 134589:1 134973:1 135725:1 135784:3 135928:1 136084:1 136219:4 136439:3 136791:2 137113:1 137797:1 138537:1 138685:1 138875:7 139573:1 139732:3 140236:2 140558:1 140670:1 141910:6 142381:2 142427:1 143121:1 143324:1 143373:2 143924:1 144031:2 144957:2 147132:1 147334:2 147899:1 148095:9 148167:1 148418:1 149578:1 151113:2 151690:1 152224:2 153141:1 153504:2 153844:2 155726:2 157015:3 158003:1 158339:2 158514:1 158564:1 158895:1 158944:1 159308:1 159884:3 160072:1 160178:1 160490:1 162355:1 162421:1 163441:1 164427:2 164996:1 165303:2 166918:1 167042:2 167996:7 168031:1 168355:2 168733:1 170116:1 170163:1 170850:1 171237:1 171573:5 171664:2 171874:1 172115:1 172249:4 172253:1 172614:1 172926:3 173687:1 173714:1 174181:2 174286:2 174337:4 174362:1 175699:1 175768:1 176706:1 177136:1 178819:2 180579:3 180799:1 180838:1 181145:3 181350:1 182778:1 183124:1 183226:2 183681:1 184692:1 185228:1 185447:1 185733:1 186479:9 186701:1 187491:1 188920:1 189221:1 190028:12 190058:1 190131:2 190263:1 190492:1 190595:1 191997:1 192035:1 192778:1 193556:1 193567:1 193765:1 193766:1 195000:1 195497:5 195887:1 197006:1 198170:2 198713:1 200414:1 200650:1 202086:1 202870:1 203677:1 203726:2 #
-0.0013999243350781703787433229990711 1273:1 5872:1 8741:1 21288:1 44280:1 51280:2 52661:1 53347:2 68637:1 82317:1 89646:1 91480:2 107752:1 109072:1 111245:2 112791:1 115635:1 119063:1 121597:1 128152:1 128650:2 130681:1 142610:1 148095:1 159242:1 161963:1 168588:1 171573:3 175300:1 177827:1 178589:2 185209:1 190028:1 195497:1 200047:1 202629:1 #
0.0013999243350781703787433229990711 162:1 2101:1 2304:1 2850:1 3374:1 5872:1 7096:2 9288:1 13836:1 16824:3 17495:1 20176:1 20570:1 21150:3 21289:1 24865:1 25156:1 26111:1 26697:1 27088:1 33402:1 35488:3 38217:2 38425:1 46627:1 47193:1 47975:1 53205:1 54604:2 57753:1 60070:1 60142:1 65558:1 68487:1 71177:1 73282:1 73376:1 74290:2 74666:1 76864:1 77733:1 78032:3 78121:1 79972:1 82179:2 82317:4 84689:1 84838:2 86046:2 91480:6 91689:1 98715:20 99702:1 100562:1 102405:6 103832:20 104254:1 105622:1 105938:3 106966:1 107506:1 107715:1 108416:1 112791:1 113056:1 115655:1 119063:1 119431:1 119852:1 122099:1 122533:1 123571:1 126006:1 127172:1 128650:4 131474:1 131944:2 133483:1 134231:1 134762:1 138507:1 138875:1 140222:1 141755:1 142381:1 143121:1 143521:1 148095:1 152460:1 153844:1 155726:2 156137:1 159884:1 161078:1 162827:3 165711:1 167042:1 169489:1 171649:1 175860:1 178589:2 183226:1 184905:1 187610:1 189870:1 191424:1 191997:1 192249:1 192415:1 192778:4 197045:1 197315:1 200923:1 #
-0.00042955253739164575999681661144791 10190:1 20570:2 27486:1 34515:1 39879:1 45173:1 47112:1 47193:1 59146:1 59148:1 60070:1 68570:1 69344:1 79305:1 79641:1 90830:1 91107:1 91689:1 94332:1 98715:1 102255:1 102405:9 103832:2 105938:2 105963:1 109537:1 110030:1 110899:1 115971:1 118254:1 122146:1 122849:1 123129:1 123571:3 124082:1 124991:1 129025:1 135924:1 138397:1 143842:1 146065:1 147326:1 148095:3 149365:1 155726:1 156878:1 158399:1 180284:1 181930:1 184172:1 184530:1 184679:1 186479:2 186589:1 190106:1 190998:1 192838:1 193765:1 194141:1 200418:1 203638:1 #
0.0013999243350781703787433229990711 1832:1 2758:1 4220:1 8063:1 8372:1 8391:1 12150:1 18172:1 18259:1 18569:1 20009:1 21150:1 21444:1 24444:2 25156:1 26642:2 27677:1 28732:1 30213:1 35321:1 35867:1 35971:1 40785:1 42091:1 46568:1 51280:1 51732:1 58994:1 61680:1 63357:1 65733:1 74196:4 74455:1 80483:1 81284:1 85894:1 87578:1 91177:1 94759:1 96261:1 98512:1 98715:1 103832:36 104477:1 105622:1 107133:1 110851:2 110971:1 112215:2 114359:1 115430:1 115844:1 115971:2 122533:2 122989:1 123887:1 127172:1 128650:1 128957:1 130393:1 131405:1 135858:1 143121:1 149397:1 150004:1 150099:1 150588:1 152460:1 152665:1 155837:1 156874:1 157207:1 171823:3 171874:1 174530:1 174531:3 175768:1 178052:1 178987:1 181619:1 182778:1 183286:1 183472:1 189200:1 189870:1 190028:1 192054:1 192778:1 197091:1 199825:1 201079:1 203660:1 #
0.0013999243350781703787433229990711 1850:1 9361:1 25475:1 27982:1 33115:1 38472:1 64067:1 68544:1 72400:2 74819:2 79228:1 82771:2 88642:1 104210:1 105938:2 114701:1 120075:2 126558:1 129241:1 142686:1 144553:1 156618:1 159242:1 159952:1 160864:2 164427:2 169107:2 172253:1 178025:1 183226:1 184500:1 185487:1 #
-0.0013328222657429532500839020059402 1020:1 11981:1 21150:1 23516:1 35277:1 37644:1 40814:1 42091:1 48456:1 52661:2 53867:3 60070:1 65425:1 70634:1 70919:1 71198:1 88522:1 88809:1 91107:1 91377:1 91480:4 99764:1 102405:2 103804:1 103832:1 105963:1 107715:1 107752:1 110936:1 114864:1 124959:1 128650:1 131944:1 134378:2 138875:1 141150:1 141355:2 148095:1 153844:1 155726:1 167002:1 171573:2 176236:1 183842:1 185206:1 186479:1 189455:1 190028:1 190263:1 191867:1 193530:1 195887:1 #
-0.0013999243350781703787433229990711 21289:1 22941:1 70432:1 77693:1 81225:1 91480:1 102405:1 103832:1 105938:1 110971:1 121155:1 124082:1 136578:1 148536:1 153844:1 156878:1 192838:1 192957:1 #
-0.0013999243350781703787433229990711 8784:1 13092:1 21150:1 21288:1 26569:1 32591:1 38425:1 42091:1 43868:1 44847:1 45500:1 47187:1 48200:1 49279:1 56480:1 60070:2 70919:2 74563:1 74666:1 79305:1 82317:2 89856:1 91480:3 98715:1 102405:3 103832:4 110030:1 120115:1 123571:1 126978:1 128650:1 131474:1 140767:1 146065:1 148095:2 149311:1 151511:1 153844:1 155104:1 155726:1 168052:1 171573:1 178589:1 179973:1 180284:1 184193:1 185360:1 186479:1 190028:1 190059:1 192957:2 #
-0.0013999243350781703787433229990711 5961:1 11306:1 15506:1 30605:1 65831:1 67224:1 76864:1 78577:1 82317:1 119063:1 123571:1 128650:1 142570:1 154995:1 172718:1 189870:2 #
0.0013999243350781703787433229990711 17922:1 55300:1 60070:1 78047:1 108455:1 120007:2 125105:2 158008:2 #
-0.0013999243350781703787433229990711 14746:1 16449:2 44738:1 51280:2 63436:1 74563:1 94193:1 109524:1 129359:1 143700:1 157624:1 158564:1 158928:1 172793:1 177850:1 188284:1 188696:1 #
-0.0013999243350781703787433229990711 5406:1 5872:1 8784:1 9275:1 11698:1 16596:1 20119:1 21150:1 23046:1 25475:1 26569:1 30968:1 32177:1 34240:1 38425:2 40646:1 42091:1 43537:1 47187:1 49945:1 50527:1 51280:1 53747:1 54017:1 54626:1 55026:1 60070:2 65114:1 72078:1 82060:1 82317:3 85495:1 90278:1 91480:5 96038:1 96261:1 100960:1 102405:2 103832:4 105938:3 105963:1 106966:1 107752:1 108430:1 110851:2 112526:1 115655:1 124082:1 124145:1 124959:1 128650:2 129504:1 129587:4 135093:1 135381:1 138875:1 140236:1 142156:1 144483:1 145888:1 146382:1 147326:1 148095:2 153844:1 155726:2 164427:1 165255:1 165303:1 166313:1 167002:1 167996:1 170981:1 171573:2 174860:1 176501:1 178589:1 180284:1 181699:1 187804:1 189000:1 190028:1 190059:1 192778:1 192957:1 194732:1 #
0.0013999243350781703787433229990711 8:3 95:2 4817:1 5247:1 6120:1 8049:1 9221:1 12143:1 12570:1 13092:2 13249:1 15066:1 15203:1 17555:2 18170:1 18584:2 18843:1 22726:2 23046:1 23655:4 24676:1 25426:1 25821:2 26120:1 27430:2 27486:4 27677:5 29572:1 29690:1 29828:1 30220:1 30605:1 34131:1 34366:1 34963:1 35277:1 37276:1 38923:1 42138:1 43630:3 43868:1 45033:1 46551:1 46773:1 47569:2 48072:1 48448:1 48456:3 49400:1 50880:1 51280:4 51290:1 52661:1 55026:1 55606:1 60070:2 60425:1 61414:1 62436:1 62536:1 62969:1 65354:1 65425:1 65627:1 67026:3 67746:1 68318:5 69564:1 69668:1 71158:1 71825:2 74309:4 74593:1 76366:1 76944:1 77764:1 77978:1 78764:1 79305:3 79641:4 79972:1 81457:1 82060:1 82317:2 83206:1 83596:1 87983:1 91107:2 92994:1 94078:1 95678:1 95849:1 96671:2 100603:1 101466:1 101497:1 102405:20 105938:1 105963:12 106206:1 106493:1 108228:1 109182:1 109783:2 110762:1 114492:1 114810:1 114836:5 115655:1 115912:1 115971:4 116187:1 116722:4 117216:1 119063:2 119275:1 119695:1 119852:3 123248:2 123571:7 124082:2 124959:2 124991:1 125998:1 127138:1 127478:5 128650:11 130159:1 130306:2 134378:2 135259:1 135688:1 136033:2 139452:1 140086:1 141304:1 142514:1 143060:1 143842:2 144862:1 147392:2 148095:12 150860:1 152720:1 152753:1 153008:8 153180:1 153844:7 156137:1 160043:1 161484:1 163206:1 163402:1 165393:2 168081:1 168355:1 169826:1 171279:1 171497:1 171573:2 172249:3 174286:1 178011:1 178589:2 179132:1 180061:10 180362:1 182026:1 182891:1 184193:1 184619:1 185440:1 186479:6 190028:13 190940:1 191424:1 191997:1 192035:1 192778:3 193522:1 195497:2 198311:1 203141:1 203220:1 203638:2 #
0.00032359014875331355105478325917545 392:1 559:4 2304:1 2629:1 6887:1 8049:4 8185:1 8486:1 13632:1 18041:1 18085:1 19071:1 21850:1 23027:1 23655:1 23960:1 23963:5 25707:4 26317:1 26697:1 26747:2 27004:1 27486:2 28313:1 29442:1 29784:1 29787:4 30548:1 30605:1 31260:10 32082:1 32854:1 34131:3 37078:4 38015:2 38425:1 38862:3 40380:1 41478:1 42091:1 42510:1 43196:1 43630:3 43855:1 44744:1 44825:1 46625:1 48456:1 49417:1 51280:13 51976:1 52661:2 53135:1 54017:1 55606:2 57318:2 57669:1 59092:2 59405:2 60070:4 60406:1 62049:1 62310:1 62797:1 62969:1 64274:1 64829:1 64905:1 65654:1 68995:2 69514:3 70634:2 71640:1 72159:1 72735:1 74309:1 75195:2 77265:1 77308:4 79305:2 79641:3 81399:1 82060:1 82317:16 83374:1 83833:1 84689:1 85495:3 85500:1 86107:1 87215:2 88224:1 90659:2 90830:3 93482:1 94022:1 96671:1 97583:1 98450:1 98715:1 101497:1 102148:2 102405:11 103031:2 103832:1 105601:2 105938:5 105963:2 106622:1 108086:4 108170:1 109072:1 110079:1 110329:1 110762:1 111732:1 112791:1 115113:1 115655:1 115752:1 115971:2 116722:4 116919:2 119063:5 119275:1 119934:1 120012:1 121535:1 121915:1 122849:1 123571:1 123984:1 124082:4 124380:2 124537:1 124959:1 125946:1 127478:1 127586:1 128593:1 128650:16 129806:1 129963:1 131474:2 131655:2 134231:1 135256:1 135928:1 140222:1 143861:2 143924:1 144776:1 146088:1 147132:2 147212:1 147500:4 148015:1 148095:9 150439:1 152460:3 152628:1 152737:1 153844:3 154732:2 154995:1 156137:1 157066:1 157320:1 158564:1 158978:2 161378:1 162447:1 164174:1 164427:2 165482:1 165692:1 166199:1 166475:1 168198:4 171573:2 172253:1 172926:1 174362:1 177580:1 177703:1 178270:2 178589:2 182970:1 184183:4 184193:1 185993:1 186479:2 189866:1 190605:3 191997:2 192313:1 192778:6 193522:1 195497:3 196752:2 #
-0.0013999243350781703787433229990711 9899:1 21288:1 32082:1 43868:1 47193:1 51280:1 54017:1 58085:1 60070:3 62536:2 82317:2 89478:1 91377:1 91480:2 93266:1 100562:3 101041:1 102405:1 105938:2 105963:2 108086:1 109182:1 115912:1 116429:1 116722:1 119063:2 124082:2 128650:2 128695:1 146279:1 146678:1 147132:1 148095:2 153707:1 153844:1 158003:1 160043:1 165161:1 167362:1 167865:1 171573:1 171838:1 184530:1 187473:1 190028:1 192188:1 195497:2 196501:1 200415:1 #
0.0013999243350781703787433229990711 242:1 1127:1 9240:1 11358:1 19673:2 19881:1 20133:1 20570:1 23485:1 26317:1 27486:2 37644:3 42091:1 47726:1 51280:1 60070:2 60682:1 68741:1 76864:2 79972:1 82060:1 84080:1 84898:1 85495:2 89305:1 89856:1 91107:1 91480:1 99744:1 99847:1 101057:1 102405:5 103832:1 105161:2 105963:1 106662:1 107715:1 110851:1 113060:1 114810:1 115547:1 115655:1 115971:1 119852:2 123129:1 124380:2 128212:1 128650:4 128841:1 132058:1 135140:2 141304:1 142647:1 146867:1 148095:3 153844:1 162049:2 164323:1 172249:1 172926:1 186479:1 189428:1 190028:1 190059:1 191997:1 195497:1 195909:2 200269:1 #
0.0013999243350781703787433229990711 5506:1 10023:2 10237:1 11336:1 15517:1 16452:1 16621:1 23655:1 24934:1 26502:1 30605:1 31523:1 35087:1 35882:1 38640:1 42091:1 47193:1 48225:1 48303:2 50559:1 55061:1 55447:1 60227:1 60554:1 61619:2 70300:1 77054:1 78906:2 82179:1 82317:4 83432:2 83523:1 83938:1 89560:1 91107:1 91820:2 93392:1 98715:1 99234:1 99764:1 101466:1 101661:1 102405:1 105963:2 107262:1 113922:1 115655:1 115912:1 116262:1 122849:2 123215:1 123250:1 126622:1 126941:1 128695:1 132982:1 134936:1 136802:1 143058:1 145679:1 148095:1 152091:1 153425:1 159362:1 160838:1 160918:2 164174:1 164427:1 165161:1 166199:2 171573:1 172249:1 172926:1 181905:1 186479:1 192778:2 #
0.0013999243350781703787433229990711 482:1 2629:1 2850:1 4237:1 4860:1 5467:1 5886:1 8281:1 9751:1 11088:1 11663:1 19015:1 19742:1 20886:1 22026:2 23655:1 25679:1 26569:1 26642:1 27677:2 30605:1 31105:1 32582:1 32854:1 33028:1 38253:1 45324:1 48456:1 48688:1 50147:1 51280:1 51318:1 54017:1 54604:1 55398:1 55945:1 58350:1 59405:1 60070:2 62137:1 62186:1 63009:1 63020:1 63687:2 67346:1 67495:1 68136:1 68637:1 71982:1 72865:1 78525:1 79300:1 81347:1 81972:1 82060:3 82146:1 82317:7 82882:1 84370:1 91107:2 91689:1 93705:1 94926:1 95063:1 97430:2 99769:1 99858:1 100431:1 100870:1 101014:1 101932:1 102255:1 102405:4 103175:1 105938:2 105963:1 108170:1 108893:1 110923:1 112892:1 114836:1 115655:1 115829:1 115971:1 117643:1 118075:2 118219:1 119063:1 121731:1 127172:1 127452:1 127916:1 128218:1 128650:5 128679:1 130893:1 131499:1 141047:1 141523:1 148047:1 148095:1 148844:1 148909:1 151219:1 153196:1 154152:1 155250:1 155691:2 156155:1 156618:1 158944:1 161352:1 161607:1 162666:1 162736:1 165161:1 165781:1 166199:1 167444:1 168214:1 172249:1 175550:1 180433:1 181793:1 182622:1 182818:1 184859:1 191548:1 195053:1 196456:1 197961:1 198291:1 200371:1 201252:1 202220:1 203701:1 #
0.0013999243350781703787433229990711 37:1 8481:1 20570:1 25990:1 26642:1 26841:1 36876:1 38412:1 42091:1 42700:1 44398:1 51280:1 56578:1 62310:1 65558:1 71644:1 79305:1 82317:2 84370:1 88554:1 91107:2 91480:1 92131:1 100686:1 102405:1 105938:1 111003:1 112791:1 119063:2 124082:1 124959:1 128650:2 129763:1 131613:1 136033:1 139732:1 148095:2 153844:1 161788:1 165595:1 174286:1 178813:1 187479:1 190768:1 192778:1 198300:1 #
-0.0013999243350781703787433229990711 9153:3 31314:1 31523:1 41973:1 50699:1 54783:1 57161:1 66740:1 77399:1 78937:3 90050:1 103832:6 115833:1 162368:2 164174:3 175768:3 190106:3 #
-0.0013999243350781703787433229990711 10355:1 12989:1 20139:2 23655:4 26697:1 31837:1 37644:5 40061:2 42091:3 46773:1 48456:1 59033:1 60070:1 64460:1 64905:3 65065:1 71516:1 71601:1 82317:1 91107:1 93392:1 97430:1 99850:2 100574:1 102405:8 103811:1 105938:1 105963:5 112720:2 115655:1 117284:1 124959:1 128085:1 130306:1 134378:1 139732:2 148095:5 149551:3 154995:1 162814:1 165161:2 172926:2 179284:2 180284:1 182258:1 186479:4 190028:3 190059:1 195497:2 #
-0.0013999243350781703787433229990711 49:1 296:1 1117:1 3133:1 5872:1 11667:1 12807:1 13512:1 15473:1 15564:1 17485:1 22014:1 26111:1 26120:2 39834:1 40242:1 40512:1 41232:11 42333:1 50347:1 53658:1 59300:1 61765:1 62304:1 67018:2 69668:3 73191:2 74504:1 74563:1 76769:2 82863:1 84824:2 85521:1 86446:1 88050:1 88244:1 89347:1 96261:9 98817:1 101983:1 102017:1 106767:3 110079:1 112086:1 115345:1 115759:1 118087:1 119503:1 119843:2 120115:2 120252:1 122282:1 123129:1 124823:1 125714:1 127108:1 127317:1 127716:1 128870:1 137791:5 139043:1 142857:1 144826:1 146065:2 146862:1 148058:1 151501:1 156550:2 158564:1 162192:1 163846:1 168055:1 168081:2 172213:4 172249:1 172260:1 182600:1 187742:2 188118:1 193593:1 195312:1 196983:2 197314:1 200399:1 201430:1 201675:1 203292:1 #
-0.0013999243350781703787433229990711 10808:1 21288:2 25137:1 40380:1 53937:1 58858:1 60070:1 62751:1 68134:1 68637:2 69389:1 69526:1 70572:1 76313:1 82317:1 91480:1 93254:1 102243:1 102405:1 103367:1 105938:1 105963:2 108718:1 110079:1 114944:1 115655:1 119275:1 120115:1 123571:1 128650:2 131474:1 132058:1 133731:1 148095:1 158003:1 165161:1 171573:1 177539:1 178589:1 178891:1 186479:2 188704:1 192778:2 192868:1 #
-0.00097945620138489429724881762950872 1729:1 2757:1 5072:1 5406:1 5512:1 6654:1 7488:1 8773:1 9039:1 10389:1 10446:1 10891:1 11222:1 15066:1 16014:1 16756:1 17805:1 18170:1 18526:1 19028:1 19324:1 19527:1 20570:1 21288:2 21651:3 23655:2 24865:1 25285:2 26317:3 27486:1 27677:3 28214:1 29344:1 30189:1 31781:1 33960:1 38015:2 38425:1 38862:1 39940:4 39971:1 40531:1 40794:2 43196:3 44314:2 46131:1 46206:2 46420:1 46613:1 48456:1 49095:1 49115:1 51202:1 51280:5 52200:2 52550:1 52661:1 54078:1 55026:1 55180:2 57318:2 57743:1 57905:1 57927:1 59014:1 60070:3 60406:1 62203:2 62331:1 65065:1 65857:1 67340:1 68136:1 68935:1 69206:1 70572:1 70955:2 71177:1 74309:1 74933:2 75519:1 76343:1 76366:3 78937:1 79305:2 79938:2 79972:1 82060:1 82317:15 83030:1 83443:1 84020:1 87215:1 87912:1 89496:2 90180:1 90524:1 91135:1 92912:1 94337:1 95442:1 95558:1 96261:1 97430:1 97786:2 97910:1 98715:2 99769:1 99843:1 102304:2 102405:13 103832:2 105726:1 105938:5 106018:1 106966:1 108170:1 108987:3 109072:1 109171:1 109271:1 109537:1 112957:1 113725:1 114229:1 114492:1 115547:1 115922:1 115971:5 116722:1 118069:1 119063:4 119592:1 119934:1 120115:2 123052:2 124082:2 124430:1 125208:1 125256:1 125266:1 127452:1 128212:2 128650:10 128695:1 129325:2 131731:1 131823:1 134222:2 134378:1 135688:1 136989:1 137238:1 137607:1 138875:1 139492:1 142156:1 142381:2 143442:1 144055:1 147132:1 147212:1 147326:2 148095:3 148520:1 148793:1 149218:1 150007:1 151958:1 151994:3 152540:1 153767:1 155308:2 155998:3 156137:1 156155:1 156487:1 156618:1 157588:1 158451:1 158944:1 159335:5 159596:1 160998:1 162053:3 163650:1 164191:1 164427:1 165105:1 166366:1 167002:1 167428:2 168323:1 169348:1 169720:1 169995:1 171573:4 172249:1 172253:1 172343:1 172384:2 172926:1 175059:1 178596:1 178724:1 178917:1 178985:1 179500:1 180362:1 182632:1 182672:1 182970:2 184096:1 184183:1 184254:2 184791:1 185360:1 185537:2 186479:2 187535:1 188231:1 190028:1 191317:1 191500:1 192778:3 193014:1 194061:1 195497:1 196501:1 197939:1 200268:2 200998:1 203492:2 203531:2 #
-0.0013999243350781703787433229990711 1004:1 4145:1 7650:1 8752:1 14107:1 18170:1 21150:1 22494:1 23655:1 26569:1 27004:1 30881:1 40708:1 42071:1 48456:2 48934:1 51280:1 52169:1 62357:4 63363:1 79641:1 79791:1 82317:1 91107:1 91250:1 91480:3 95246:1 100562:2 105490:1 105938:1 106319:1 108718:1 112758:1 116851:1 120115:1 127152:1 128534:1 131474:1 131682:1 133286:1 146065:1 148095:1 151003:1 153844:1 158003:1 159242:1 164174:1 171573:2 186479:1 188624:4 #
-0.0013999243350781703787433229990711 180:2 185:1 3546:2 7365:1 7834:1 8049:1 8679:1 8743:2 9153:1 9287:10 10023:1 10389:5 12746:1 15006:1 15066:2 19475:1 19548:1 20370:2 20570:1 21042:2 22173:2 24404:2 24499:1 25285:4 25426:1 25511:1 26317:2 26569:1 26642:5 26737:1 26794:1 26842:1 26846:1 26878:1 27155:1 27526:1 27677:2 29077:2 30961:3 31581:1 31879:1 32660:2 32970:1 33348:1 34240:2 35161:1 35400:1 36044:1 37644:1 38412:3 39212:1 39345:1 39879:1 40380:1 41569:1 41973:1 42091:1 43913:1 44972:4 45986:1 45998:1 46519:1 46563:1 46773:2 47569:1 48456:7 50699:3 51280:7 52429:1 52661:1 53870:1 58880:4 59234:1 59670:1 59720:1 60070:16 61642:1 61899:1 62304:2 63363:2 63778:1 64031:2 64269:1 65425:2 65558:12 67955:1 68318:2 68637:1 69355:1 69389:2 71516:1 71825:1 72474:1 74309:1 76366:4 76376:1 76505:2 76864:1 77855:1 79305:8 79791:1 80590:1 81424:1 81544:1 81637:1 82317:22 82361:1 82863:3 83030:3 84370:2 85187:1 85662:1 86912:1 87215:3 88005:2 89549:1 89646:1 90278:1 91107:3 91480:41 92151:1 92238:1 93012:2 94419:1 95518:1 96261:1 96681:1 97358:1 97933:1 98240:1 98715:4 100562:22 100839:1 101605:1 102140:1 102255:2 102405:9 103594:1 103726:1 103832:7 104322:1 104347:4 105671:1 105938:3 105963:20 107715:3 108170:1 108972:1 109072:1 109537:2 109783:1 111435:2 112087:2 112088:1 112791:1 113046:1 113725:1 114415:1 114836:1 115081:1 115655:5 115912:1 116262:1 117643:5 117814:1 117825:1 119063:6 119275:2 121823:1 123129:14 123782:1 124082:6 124380:8 124389:3 124430:1 124959:2 124991:1 125560:1 125738:1 126192:1 126907:1 128085:1 128212:9 128280:1 128620:1 128650:14 128702:4 129025:1 129139:2 130306:3 130774:1 131474:8 131944:2 132058:1 132699:2 134378:1 135381:1 135784:2 135957:1 136314:2 138685:1 138861:1 138875:7 139561:3 139732:1 139751:1 140236:1 140513:1 141312:1 141355:1 141850:1 141933:5 142381:2 142477:8 144374:8 144826:1 144856:1 145884:1 146075:1 146688:1 147213:1 148095:50 148317:1 148536:2 149578:1 151690:1 151762:4 152224:1 152606:6 153462:2 153844:5 155498:1 155726:1 156137:2 157320:1 158969:1 159381:1 159882:1 159884:1 160072:3 161385:1 161963:2 162355:1 163402:1 164174:4 164427:1 165303:1 165595:1 165937:1 166366:1 166827:1 167491:2 167996:14 168571:1 168882:4 169781:1 170163:3 170698:1 171573:3 172177:1 172249:4 172253:1 173156:1 173419:1 174181:1 174286:4 174797:1 175658:1 175768:11 176782:1 177004:1 177629:1 178116:1 178589:2 181350:2 182031:3 182679:1 183571:1 183698:1 184765:1 185514:1 186479:1 186865:1 186955:1 187317:1 188391:1 188704:1 189870:8 190028:5 190073:1 190131:3 191997:1 192778:5 192957:2 195053:2 195497:5 196506:1 199628:1 200399:3 200566:1 201610:1 203146:1 #
0.0013999243350781703787433229990711 8481:1 9533:1 13826:1 15462:1 26642:1 28100:1 29442:1 30316:1 30558:1 40512:1 40634:1 42782:1 49584:1 51280:1 51762:1 53205:1 57205:1 58446:1 62404:1 72614:1 79305:1 82805:1 85524:1 85725:1 92440:1 94330:1 102405:2 105938:2 109537:1 109561:1 110030:1 116626:1 119063:1 128650:1 131474:1 131833:1 132816:1 137287:1 150504:1 152548:1 152665:1 154124:1 157320:2 159432:1 160304:1 163660:1 167768:1 171573:1 174206:1 180058:1 185305:1 190963:1 191997:1 195289:1 197649:1 200079:1 200442:1 203380:1 #
0.0013999243350781703787433229990711 31:1 559:3 2547:1 2629:1 3546:1 3901:1 4988:1 5127:1 5204:1 5501:1 6138:1 6789:1 8450:1 8784:1 8890:1 10237:2 12232:1 12759:2 14803:1 16648:1 16824:3 18170:1 19040:1 19337:1 19921:1 20541:4 20570:1 21150:2 23655:1 23909:1 27087:1 27486:2 27677:2 28078:1 29115:1 29324:1 29501:1 30489:1 31260:4 31416:1 32082:1 32983:1 34037:1 34256:1 34969:2 35277:1 36949:1 37644:1 40047:1 40123:1 40761:1 42091:1 42847:1 44017:1 44972:1 46773:1 46970:1 47027:1 48071:1 48448:1 48456:4 48474:1 49990:1 50146:1 51182:1 51280:7 51921:1 52661:1 53200:1 55023:2 55132:1 55606:1 56027:1 57932:1 59720:1 60070:8 60952:1 62242:1 62308:1 62404:1 62751:1 63363:3 65831:3 68146:1 68260:1 68532:1 68637:2 69021:1 71177:2 72357:1 72865:1 73966:1 74290:2 74309:1 75156:1 76237:1 76366:1 77265:8 77351:1 77546:1 77857:1 78259:4 78531:1 78937:4 79305:1 79896:1 79938:3 79972:1 82069:1 82317:8 82840:2 83270:1 84588:1 85495:2 88050:1 88554:1 89053:2 89361:1 91107:5 91480:9 92151:1 92894:1 93280:2 95045:1 96467:1 97872:1 98266:1 98715:1 99207:1 100562:3 102255:2 102405:18 102471:1 103016:1 103525:1 103643:2 103832:1 104325:1 104862:1 105001:1 105938:10 105963:7 106388:1 108605:1 108625:1 108987:1 110851:1 110951:1 111515:1 114836:1 115258:1 115556:1 115655:2 115736:1 115752:1 119063:21 119136:1 119275:1 119554:1 120230:1 120704:4 121037:1 122290:1 123008:1 123129:1 123571:1 124082:4 124144:1 124886:1 126992:2 128650:23 129219:1 130306:1 130386:1 131100:1 131474:3 131598:1 131682:1 131740:1 131944:1 132058:1 133015:1 134378:1 134458:1 135256:2 137020:1 137144:1 137691:1 138875:7 139732:1 139751:1 140222:1 140931:1 141304:2 141979:1 143167:1 143924:1 144862:1 145795:1 147132:1 147326:1 147334:1 148095:7 148167:2 151627:1 151690:1 151881:1 152657:1 152720:1 152901:1 153844:2 153914:1 153934:1 156306:1 161114:1 163120:1 163345:1 164360:2 164427:2 165715:1 166795:1 167290:1 167399:2 167996:5 168158:1 168288:1 168428:1 169107:1 169935:1 171447:2 171573:11 171874:3 172249:1 173930:1 174006:1 175237:1 175768:1 176194:1 176782:1 178589:1 179500:1 180061:4 180649:1 182803:1 184254:1 185360:1 186479:7 187656:1 189489:1 190028:4 190263:1 190998:1 192778:6 195053:1 195497:1 195887:1 197314:1 198771:1 199399:1 199542:1 201098:1 202329:1 203273:1 203292:2 #
0.0013999243350781703787433229990711 5160:1 10088:1 12746:1 16591:1 26317:1 26569:1 27004:1 30605:1 41185:1 42614:1 45414:1 48522:1 50880:1 51280:2 54806:1 56282:1 60406:1 60816:1 61672:1 68663:1 78121:1 78848:1 95575:1 98715:1 102630:1 103561:1 103832:1 104609:1 112791:1 116354:2 119339:1 122305:1 127601:1 128650:3 131474:2 133966:1 134301:1 154583:1 159242:1 160409:1 163860:1 164120:1 164405:1 168705:1 178739:1 182291:1 197516:1 198790:1 #
5.4376744923653858010924311283674e-05 95:7 508:1 1032:1 1450:1 1908:2 2304:1 2836:6 3479:1 3954:1 4579:4 4988:1 5072:1 5727:1 6120:1 8049:1 8743:1 8958:1 10237:1 10355:1 10446:1 10561:1 11688:1 12315:1 14470:1 16020:1 16229:1 16591:1 17119:1 17596:1 18192:1 18444:4 18843:1 19921:1 20403:1 20541:1 21289:1 21711:1 22026:1 22589:2 23228:1 23835:5 24059:1 24632:1 26642:2 26658:1 26737:1 27486:1 27656:1 27677:2 29448:1 30220:1 30489:2 30593:1 30605:3 31441:1 31669:2 31765:1 31776:1 31838:1 31967:1 32389:1 33936:1 34057:4 34131:1 34366:1 34801:2 35404:1 36044:1 36479:1 36644:1 36789:1 36868:1 37389:1 37675:1 38325:1 39011:1 40331:1 40786:1 41232:3 42091:2 42158:1 42333:1 43377:1 44094:1 44892:1 45384:1 45759:1 45820:3 45925:1 46773:3 46778:1 47646:1 48192:2 48456:1 48834:1 49095:1 50116:1 50303:1 50310:1 51280:13 52661:1 54761:1 56897:1 57669:1 58950:1 59092:1 59791:1 60070:3 60946:1 61853:1 62313:1 62502:1 62571:1 62687:1 63304:6 63640:1 63707:1 64460:1 64617:1 64878:1 64970:2 65763:1 65831:1 66490:1 66531:1 66961:2 68260:1 72545:4 73376:1 73590:2 74624:2 74990:1 75519:1 76366:1 76724:1 77958:1 78531:2 78557:1 78932:1 79305:3 79641:2 79659:1 79938:8 80800:1 80945:3 82038:1 82179:1 82317:21 82336:1 82782:1 83030:3 84461:1 85495:1 85638:3 91107:2 92623:1 92631:1 93266:1 93886:1 95171:1 95510:1 95711:1 96261:3 97008:1 97216:1 97430:3 97566:1 97724:1 97930:1 98457:1 98715:10 98720:1 99744:1 99995:1 102255:1 102405:16 102935:1 103337:1 103367:1 103832:11 104079:1 104347:1 105539:1 105726:1 105938:11 106662:2 106714:1 107133:1 107359:1 109783:1 110079:1 111251:1 111264:1 112368:1 114229:1 114501:1 114836:2 114873:1 115065:1 115655:2 115752:1 115826:1 115912:1 115971:2 118722:4 119063:17 120918:1 122533:1 123129:1 123571:4 123577:1 124082:5 124380:1 124799:1 124959:2 125081:1 125256:1 126259:1 126686:1 127172:1 127759:1 128620:1 128650:32 129025:1 129587:1 129597:1 129963:2 130334:1 130964:1 131944:2 133094:1 133542:1 134114:1 134231:2 135259:1 135381:1 135928:1 137214:1 139451:1 139928:1 140478:1 140790:1 141470:1 141850:1 142477:2 142490:1 143060:1 143464:1 143723:1 143842:1 143986:1 145284:1 146206:1 146678:1 147132:3 147334:1 148095:5 148369:1 148413:2 149219:1 149509:1 149945:1 151187:1 152460:1 153180:1 153844:2 154124:1 155165:1 156098:1 156118:1 156307:3 157234:1 157320:1 157330:1 157341:1 158718:1 158926:1 159186:2 160858:1 162049:1 162175:1 162605:1 163270:1 163421:1 163431:1 163651:1 163909:3 164174:1 164427:1 164643:2 166981:1 167089:1 167290:1 167841:1 170039:1 170659:1 171573:2 171874:1 172249:2 172603:1 172911:1 173309:1 173343:1 173531:2 174286:2 174860:1 175768:9 176236:2 177136:1 178589:2 178715:1 178823:1 179064:1 179133:1 179240:1 179271:1 179347:1 180173:1 180362:1 180417:1 180933:1 181905:2 182787:1 182983:1 183226:1 183883:2 184260:1 184729:1 185402:1 185688:1 185834:1 186479:6 187150:2 187445:2 187650:1 188122:1 188342:1 189792:1 190028:6 190059:1 190550:1 191287:1 191997:3 192516:1 192778:2 193107:1 193510:1 193966:1 194705:1 195000:1 195497:6 196418:1 196501:1 196753:1 197262:1 198297:1 199450:1 200835:1 201279:2 201407:2 202044:3 203146:1 203384:1 203469:2 203595:1 #
0.0013999243350781703787433229990711 8:1 1919:1 2249:1 2629:1 3349:1 4817:1 10001:2 10541:1 11936:1 19212:1 20708:1 21150:1 23655:1 27527:1 27677:1 30323:1 39327:1 40758:1 46214:1 47925:1 49747:1 53537:1 54009:1 54017:1 55594:1 55621:1 60070:1 64962:1 66010:1 66049:1 70983:1 71501:1 73950:1 76863:1 76864:3 77969:1 80721:1 81424:1 83203:2 84656:2 84898:1 90404:1 90830:1 92714:2 97430:1 98297:2 103431:2 103832:3 105391:3 105938:1 106121:1 109783:1 110098:1 112315:1 112720:1 115095:1 119063:1 119798:1 123129:1 125632:1 125780:1 126566:1 127860:1 129575:1 130678:1 132510:2 133796:1 134429:1 138263:1 139530:2 142321:1 142532:1 142557:2 142686:1 147899:1 152460:1 154762:2 155456:1 167002:1 168941:1 169308:1 174237:1 179271:1 183226:1 190028:1 193592:1 195497:1 196398:1 196684:1 200141:1 #
-0.0013999243350781703787433229990711 1264:1 1527:1 1859:1 6257:1 10008:1 20570:2 21800:1 27486:2 27793:1 32877:1 34963:1 35989:1 40869:1 44062:2 47187:1 48456:1 51280:2 52815:1 56833:1 58931:1 59255:1 59313:1 59495:1 60070:1 60270:2 60425:1 61644:1 62061:1 64753:1 66357:1 67535:1 67578:1 70995:1 71640:1 73338:1 74666:1 79157:1 79305:2 82317:1 82477:1 85020:1 85036:1 85369:1 89339:1 91480:2 94080:1 97430:1 98715:21 100075:1 105236:1 105938:2 106421:1 108718:2 109145:1 109415:1 109783:1 109958:1 110079:1 110851:21 112413:1 112433:2 115900:1 119063:2 123571:1 124082:2 124561:2 125335:1 127780:1 128321:1 128588:1 128650:5 129290:1 130306:1 131474:1 132058:1 133508:1 134378:1 135259:2 136033:1 137791:1 138650:1 138875:1 139388:1 140095:1 141150:1 144078:1 145255:1 147326:2 148095:3 151952:1 152314:1 153844:1 155507:1 156878:1 161385:1 162503:1 164409:1 172184:1 172368:1 172380:1 174286:1 175860:21 188714:1 188774:1 189489:1 191776:1 196018:1 203391:1 203726:1 #
-0.0013999243350781703787433229990711 4338:1 20215:1 24514:1 27666:1 36133:1 52014:1 52674:1 65899:1 70448:1 75923:1 76788:1 81217:1 86078:1 90046:1 98715:2 101688:1 103832:2 124946:1 127763:1 143153:1 146996:1 147562:1 148777:1 150805:1 152248:1 154171:1 157201:1 170973:1 173609:1 175860:1 180010:1 180516:1 181231:1 181835:1 192962:1 #
-0.0013999243350781703787433229990711 392:1 575:1 2075:1 2325:1 2470:1 2634:1 3641:1 4753:1 7358:1 7473:1 8049:1 10471:1 10600:1 10739:1 11139:1 11819:1 12005:1 13092:1 13443:1 13725:1 18356:1 18955:1 19524:1 20299:1 21150:1 21651:1 21665:12 22405:1 22941:2 23196:1 23520:1 23719:1 24795:1 27004:1 27486:1 27555:1 27656:2 27677:3 27935:1 29851:1 30705:1 31669:3 31801:1 32007:1 33304:1 35537:1 38015:10 38023:1 38121:5 38862:1 39360:1 39526:1 40761:1 40843:2 41707:4 42298:1 43753:1 45480:1 45896:1 47193:1 47201:2 47206:1 48071:2 48448:1 51280:14 52170:1 52429:1 52519:1 52550:1 53482:1 54017:1 54377:2 54443:1 55524:1 55689:1 57669:1 59724:1 60070:2 60612:1 60882:1 62203:2 63191:1 63413:1 63852:1 66939:1 67235:1 68260:3 69425:1 70572:2 70955:6 71055:1 71640:1 74646:1 74834:1 75942:1 78937:1 79305:1 80972:1 81262:1 81379:2 82060:1 82317:17 84201:1 84461:2 85189:1 85638:1 85854:1 87419:1 90254:1 91410:1 91843:1 93861:1 96455:1 97786:2 98213:1 100895:1 101661:1 102405:5 102477:1 102505:1 103365:1 105938:3 106658:1 106803:1 108170:1 108778:1 109537:9 110431:1 110515:1 111164:1 111272:1 111744:1 113098:1 113772:1 114836:1 115547:1 115818:1 116722:1 117144:1 117979:1 118797:1 118920:1 119063:26 119546:1 121167:1 121865:1 121929:1 122816:1 123129:2 123571:2 124380:2 124959:1 125450:1 127011:1 127139:2 127172:1 128620:1 128650:11 129325:1 129675:1 130098:1 131195:1 131474:1 131598:1 133388:1 134231:1 134378:1 135264:1 135345:1 135688:1 135986:1 136033:2 137144:1 137791:1 138451:1 141523:2 142322:1 146620:1 147398:1 148095:1 148544:1 148640:1 148945:1 149108:2 151501:1 152916:1 154528:1 154954:1 157588:1 158003:1 159271:1 159432:1 159437:1 159637:1 162145:1 162657:1 164623:1 164940:1 166199:1 166304:1 166366:1 166664:1 167774:6 167996:2 168198:1 168605:1 171833:1 171874:1 172249:2 172405:1 173178:1 174891:1 175768:2 175996:1 176831:1 177136:1 177348:1 179277:1 179500:12 180268:1 181145:1 182632:2 184254:1 185206:2 186479:2 186891:1 186929:1 187267:1 189710:1 189870:1 191997:1 192778:5 193476:1 193578:1 194064:1 194172:1 195053:2 195497:1 195751:1 197623:1 197774:1 198027:1 198949:1 199128:2 199385:1 200272:1 201165:1 202937:1 203638:1 #
-0.0013999243350781703787433229990711 5406:1 8049:1 22941:1 24404:1 26317:1 30605:1 31665:1 37644:1 39439:1 43018:1 48966:1 50966:1 58090:1 64706:1 69699:1 74402:1 77562:1 77855:1 79641:2 87780:2 91107:1 91480:1 92842:1 94494:1 97008:1 97561:1 101497:1 102405:2 103832:3 110219:1 123571:2 124430:1 124959:1 129675:1 133259:1 134378:1 140004:1 141850:1 142114:1 142477:1 144207:1 148536:1 148609:1 148844:1 155726:3 164427:1 168355:1 171432:1 172249:1 181145:1 181350:1 181915:1 186479:1 187400:1 192176:1 193952:1 195863:1 196650:1 #
-0.00083756309791124621249441828396698 180:1 296:1 508:1 1940:1 2629:3 2850:2 3290:1 3717:1 4654:1 5156:1 6120:1 6551:1 7055:1 8049:1 8117:1 10237:2 10541:2 10630:1 11086:1 12232:1 14881:1 15564:1 15636:1 16596:3 16714:1 17077:1 17169:1 18136:1 18843:1 18955:3 19888:1 19921:2 20541:1 21150:2 21787:1 23046:2 23909:1 24865:1 25020:1 25816:1 26317:1 26418:1 27004:1 27486:2 27677:2 27935:1 28056:1 28803:1 29442:1 29690:1 30605:2 30961:1 31029:1 31669:1 32068:1 32983:1 34198:4 34240:3 34256:1 36133:2 36949:2 38070:1 38425:2 38455:1 39397:1 40728:1 42091:1 43154:1 43868:1 44314:1 44405:1 44616:1 44964:1 45021:1 45675:1 46108:1 48456:5 48641:1 49425:1 51280:4 51290:1 51614:1 52159:1 52661:2 53200:1 54672:1 55026:2 56004:1 56480:1 58085:1 58189:1 58351:1 58880:3 60070:6 62070:1 62310:1 62989:1 64031:1 64460:1 64829:3 65831:2 67018:1 67160:2 67735:1 68136:1 70287:1 71085:3 71158:1 72419:1 75156:1 75916:1 76866:1 78259:1 78390:1 78549:1 78557:1 79168:2 79305:2 79641:1 79938:3 79972:1 80349:1 80906:1 80929:1 81372:1 81727:1 82060:3 82317:8 85500:1 87983:1 88151:1 88309:1 88538:1 89053:1 89496:2 90306:1 90830:1 91107:3 91480:19 91689:1 92276:1 93254:2 95872:1 96261:1 96805:1 97786:1 98159:2 100562:5 101018:1 101649:4 102248:1 102405:10 103145:1 104247:3 104832:1 105938:11 105963:9 106388:1 107394:1 109601:1 110633:1 111028:1 111116:1 112410:1 112575:1 112791:1 113056:1 113558:1 114706:1 114810:1 114836:1 115271:2 115655:1 115912:4 116626:1 119063:14 119790:1 119934:1 120115:1 120707:1 121124:1 121996:1 122792:1 123571:5 123581:1 124082:5 124380:4 124621:1 124896:1 125070:1 127257:1 127478:1 128004:1 128285:1 128321:1 128650:28 129025:2 130058:1 130097:1 131474:4 131682:1 131923:1 131944:1 132058:1 132699:1 134378:2 135256:2 136666:2 136791:1 137144:1 137665:1 138875:3 139808:1 140222:1 140298:1 140306:2 140924:1 141910:4 143736:1 147132:3 147334:1 148095:7 148336:1 149369:1 149383:1 151627:1 151690:4 152657:1 152753:2 153294:1 153844:1 154408:1 155774:1 156273:1 156878:2 159884:1 160072:1 162658:1 162797:1 163120:1 163361:1 164427:1 164661:1 165303:1 166527:1 167171:1 167996:3 168031:1 168081:1 168504:1 168623:1 168849:1 169011:2 169815:1 171447:1 171573:4 171874:3 171995:1 172046:3 172249:2 172926:1 174362:1 174992:1 175141:1 175768:1 177569:1 178589:3 180061:2 180358:1 180787:1 181350:1 182878:1 183357:1 184905:2 185206:3 185360:1 186479:8 187623:1 189156:1 189384:1 189489:1 189977:1 190028:4 190363:1 191410:1 191997:3 192778:5 193522:1 193765:1 194227:1 194480:2 194999:1 195393:1 195497:5 196313:1 196456:1 197203:4 197247:1 198113:1 200923:1 201503:1 201888:1 202836:1 203038:1 #
0.0013999243350781703787433229990711 392:1 781:1 4382:4 6971:3 8049:1 8890:1 10932:1 18170:1 20119:1 20358:1 21376:1 22726:1 27486:1 30605:2 31260:1 38122:1 38411:4 38425:1 39384:1 42091:1 44650:1 51280:1 52266:1 55353:1 55606:1 56282:1 60070:3 60583:1 61841:1 69425:4 71516:1 73911:1 79972:2 81457:1 82317:2 88538:4 91480:2 96560:1 101057:1 102376:1 102405:4 102506:4 103832:1 105938:1 105963:1 110199:1 112819:1 115655:1 115752:1 119063:1 123015:1 123129:1 128650:2 130306:2 134378:1 135784:4 136605:1 139732:1 140236:1 141355:1 142156:1 142477:4 146862:3 148095:6 152720:1 153844:2 155726:1 156137:1 158244:1 166199:1 167996:1 169455:1 169995:1 172249:1 176402:4 186479:3 189390:1 190028:2 191420:1 191548:1 192778:2 195497:9 196101:1 199600:4 203458:1 #
-0.0013999243350781703787433229990711 185:1 2850:1 3607:1 5247:1 5367:1 5406:1 5728:1 6335:1 6728:1 8049:2 8281:1 9444:1 10237:1 10278:2 10739:1 11536:1 12989:1 13746:1 14006:1 14107:1 14608:1 14924:1 15865:1 19921:2 20068:1 20570:1 21150:6 21289:1 22941:1 23069:3 24865:2 26017:1 26193:2 26317:1 26569:1 26737:1 27676:1 28027:1 28845:3 29222:2 30968:1 34240:3 36876:3 38412:4 38425:2 39609:1 39830:1 40646:1 40875:1 41330:1 41569:1 42041:2 42117:2 43196:1 43963:1 44314:1 44650:1 44847:2 44953:1 47125:1 48456:2 50506:1 51073:1 51280:4 51290:1 53047:1 55606:3 57193:1 57593:1 57603:1 60070:4 60269:1 60406:1 64556:1 65558:1 68318:2 68461:1 68487:2 69389:1 70292:1 70489:1 71825:1 72854:1 74309:1 74666:2 75030:1 76366:4 77190:1 77919:1 79305:1 79641:2 80113:1 80590:1 80833:1 81544:1 82060:3 82317:5 83390:1 84150:1 84838:1 87276:1 88661:1 89488:1 90037:1 90180:1 90191:1 90830:1 91107:5 91410:1 91480:11 92556:1 92661:1 93012:1 94649:2 96311:1 96681:1 97278:1 97593:1 98715:6 100562:2 101233:2 101562:1 102405:11 102799:1 102826:1 103804:1 103832:15 104347:2 105391:1 105938:14 105963:1 106319:1 106924:1 108170:1 108220:1 108265:1 108718:1 108987:1 109072:1 109537:1 109783:1 110425:1 110762:1 110971:1 112087:1 112263:1 113060:1 114183:1 114687:1 114836:1 115655:5 115912:2 115913:1 116187:1 117084:1 118628:1 119063:7 119154:1 119275:3 120115:1 120305:1 120779:1 121773:1 122792:1 123169:1 123215:1 124389:2 124621:1 124959:5 125608:1 126645:1 126818:1 127601:3 128650:16 128913:2 129041:1 131474:1 131944:6 132058:3 132980:1 134378:4 135113:1 135259:1 136744:1 136898:1 138562:3 139303:1 140236:3 141850:1 141910:1 142067:1 142201:1 142549:2 143272:1 143310:1 143716:1 143924:1 144717:1 144776:1 146152:1 147326:2 147899:3 148095:16 148536:1 148932:1 149887:1 150864:1 151384:2 152009:1 153844:3 154854:1 155726:7 156137:1 156277:1 156828:1 157320:1 158003:1 158385:1 159946:1 160538:2 162867:1 163199:1 163780:1 165087:1 165303:1 165938:1 167996:4 168623:1 171279:1 171573:5 171649:1 171874:2 172249:2 172405:1 173174:1 174181:2 174286:1 174362:2 175141:1 176678:1 176782:1 176861:1 177183:1 178109:1 178589:15 180284:1 181145:1 181733:1 182440:1 184183:1 184193:1 184905:3 186479:3 188704:1 188964:1 190028:4 191482:1 191774:1 191997:3 192384:1 192778:3 192957:1 194787:1 195497:16 196456:1 198972:1 199299:1 199642:1 200529:1 202895:1 #
-0.0013999243350781703787433229990711 8:5 392:1 781:2 3718:1 5406:1 8049:2 8117:1 13092:2 16596:1 17294:1 18170:1 18843:1 18875:1 19983:1 21150:2 21558:1 22587:1 22726:1 25020:1 26120:1 27004:1 27486:2 30605:1 34240:1 34366:1 40869:2 42091:2 43031:1 43630:1 43649:1 44847:1 49276:1 50720:1 51280:5 55353:1 55606:1 60070:2 62722:1 65184:1 66941:2 67019:1 67026:3 68522:2 69668:1 69991:1 76366:3 79168:1 79305:3 79495:1 79641:3 79972:2 82317:4 82336:1 84689:1 85524:4 91107:2 93458:1 93928:2 95955:1 97430:2 97786:1 98053:1 100659:2 102405:13 102661:1 103832:6 105938:5 105963:2 107062:1 107715:1 114810:1 114836:1 115217:1 115655:2 115912:1 115971:3 119063:3 121167:1 121976:1 123571:3 126962:1 127478:2 128650:9 131086:1 131474:1 132058:2 132699:2 134231:1 136831:2 138562:1 140006:1 140222:1 140236:4 141150:1 141304:1 145387:1 146678:1 148095:6 151501:3 152421:1 152753:1 152916:2 153844:2 155473:1 155726:5 157925:1 159884:1 161385:1 161884:1 162169:1 165187:5 167235:2 168125:1 169095:1 169455:1 170981:1 171874:2 172249:2 176099:2 178589:5 183357:1 184254:1 184553:1 185688:2 186479:3 187128:1 190028:1 192249:2 195497:1 195887:1 199203:1 203220:2 203469:1 #
0.0013999243350781703787433229990711 12780:1 13092:1 18843:1 19494:1 20570:1 25225:1 25339:1 27284:1 30313:1 30961:1 33939:1 35537:1 38640:1 39879:1 47143:1 47985:1 49615:1 50775:1 51280:2 52169:1 52535:1 52629:1 55966:1 67346:1 68367:1 68637:2 74666:2 76366:1 80399:1 80670:1 81786:1 82060:1 82317:5 82997:1 84643:1 90278:1 90984:1 96640:1 97430:1 97783:1 98560:1 98715:2 99168:1 101018:1 102405:3 103832:2 105938:2 105963:1 108718:1 109670:1 112999:1 113056:1 113060:1 115371:1 115655:1 118999:1 119063:1 120829:1 122792:1 123753:1 124380:1 128085:1 128295:1 128650:8 131474:1 132058:1 136226:1 139120:1 139388:1 139779:1 140558:1 141595:1 143121:1 145280:1 146856:1 147326:2 147899:1 148001:1 148095:1 151745:2 153425:1 153844:1 155234:1 155411:1 156138:1 158781:1 159222:1 161385:1 167183:1 170106:1 171065:1 171519:1 174362:1 183546:1 186479:1 187710:1 188284:1 190028:1 191879:1 197830:1 198684:1 201749:1 #
0.0013999243350781703787433229990711 3089:1 3546:1 11536:1 13092:1 13249:1 15557:1 16769:1 18970:1 19921:1 20068:1 21737:1 24036:1 28922:1 30961:1 32713:1 34240:1 35597:1 38412:1 44948:2 46096:1 46773:1 48807:1 48932:1 50949:1 51280:2 52661:1 55884:1 59405:1 59720:1 60070:2 60453:1 62299:1 66926:1 68318:1 68487:1 70426:1 71516:1 72091:1 73578:1 74666:1 76309:1 79305:1 81362:1 82060:1 82317:5 83030:1 86139:1 91107:1 91410:1 91480:4 95999:1 98710:1 98715:1 99257:1 99378:1 100562:5 101802:1 101934:1 102100:1 102405:2 103206:1 103832:5 104231:1 105938:2 106319:1 108625:1 110851:3 112791:2 115635:1 118087:1 119063:3 124082:3 127601:1 129504:1 131474:1 132058:1 134231:1 134378:1 135259:1 136189:1 138875:4 140969:2 143076:1 143272:1 143504:1 145884:1 147326:1 148095:1 150201:1 154972:1 155726:1 156137:1 160468:1 164427:2 166199:1 166492:1 166795:1 167996:1 168438:1 168855:1 170163:1 172400:1 174362:1 174511:1 174531:1 179500:1 180284:1 182445:1 182810:1 186479:1 196966:3 197045:1 198231:1 #
0.0013999243350781703787433229990711 1043:2 20119:1 22344:1 22587:1 23655:1 27677:1 36928:1 37832:1 42091:2 59505:1 61841:1 68318:1 68487:1 71488:1 82060:2 82317:1 83030:1 87388:1 90195:1 90830:1 91480:8 96261:1 97933:1 98715:1 100562:1 101014:1 101934:1 102405:1 103832:1 105938:2 108170:1 110079:1 114158:1 119063:1 121197:1 122533:2 122792:1 124959:1 129246:1 130315:1 132058:1 134378:1 138875:1 148095:1 151690:1 152460:1 153844:2 156442:1 167996:3 171874:1 173799:1 174362:1 176861:1 178589:1 179500:1 183747:1 186479:1 187150:2 190028:1 190059:1 198783:1 203531:1 #
8.6286076604301928990453651735493e-05 4768:1 4817:4 10224:1 12721:4 15506:1 15981:4 16231:4 19688:2 23655:1 23960:4 25931:1 26317:1 26642:2 26846:1 27004:1 27656:8 27677:1 28081:1 30220:1 37870:1 37906:1 37920:1 41232:3 43246:2 49945:4 51280:1 52169:2 52519:5 54496:1 56141:1 57318:1 60070:4 62536:8 62908:4 63687:4 64343:2 65065:1 65135:2 65766:1 66740:1 67018:4 67371:1 69514:4 70983:1 71501:3 78076:1 78937:4 80258:2 81189:6 82179:2 84370:1 84870:1 85255:1 85524:4 87044:1 88345:2 90707:4 91480:1 93290:1 93482:4 97430:1 97786:1 101367:1 102255:3 103895:1 105938:4 107020:3 109521:4 109785:1 109800:4 113084:1 114638:1 115912:1 115971:1 117643:4 123129:2 124151:4 124380:2 129675:3 130294:1 132795:1 133151:3 135854:1 138875:1 141355:1 141933:1 143420:4 146598:1 148095:4 148570:2 152628:1 154124:1 154666:1 155505:2 156253:2 158178:1 159783:4 161595:8 162192:4 163495:1 165161:4 165187:1 167770:1 170067:4 170378:1 171877:4 172530:1 173838:2 174371:1 174913:1 175271:1 175768:1 176803:1 177588:1 183357:4 184254:4 185206:9 186479:1 189177:4 189870:2 190180:1 192778:5 193765:4 194064:4 195053:1 196834:1 201670:3 #
-0.0013999243350781703787433229990711 1908:1 8957:1 17070:1 18621:1 21725:1 21759:2 24795:1 26642:7 32381:1 46315:1 49161:1 49836:2 55300:1 60070:1 68879:1 70246:1 74748:1 82603:2 84370:4 89723:1 97430:1 108128:1 108603:1 122976:1 123129:1 129058:1 143121:2 143528:1 145921:2 146852:2 146862:3 147954:1 150567:1 167042:2 172384:1 173461:1 176956:1 187749:1 194129:1 195099:3 201037:1 #
0.0013999243350781703787433229990711 17983:1 20570:1 21427:1 23655:1 25462:1 26794:1 30220:1 31821:1 32992:1 37965:1 39934:1 48456:2 50724:1 51280:2 54017:1 59408:3 60741:1 65425:1 66194:1 66267:1 69389:1 70998:1 79331:1 79528:1 82317:2 83030:1 87215:1 90720:2 96280:1 98240:1 99744:1 101411:1 102209:1 102405:2 103810:1 105938:1 105963:2 109537:1 109783:1 115655:1 115985:1 119063:1 119339:1 120305:1 122673:1 124082:1 126383:1 127601:1 128650:3 141910:1 147076:1 148095:2 153700:1 160020:1 163860:1 164405:4 171994:1 172372:1 174390:1 174435:1 180284:3 182878:1 192778:1 193825:1 194063:1 194659:1 200873:1 201503:1 #
-0.0013999243350781703787433229990711 7567:1 8117:1 9153:1 9667:1 10023:1 19839:1 26642:1 27348:1 30605:1 32078:1 35100:1 37481:1 39642:1 41973:1 48909:1 51280:1 54017:1 61680:4 68487:1 68513:1 75017:1 77136:1 78561:1 79305:1 80854:1 84370:5 93189:1 102255:1 112921:2 116626:1 120704:2 126864:1 129597:1 150439:1 151501:1 152119:1 154873:1 155837:1 160300:1 163482:1 164174:1 173167:1 175131:1 181350:2 182031:1 186479:1 195661:1 196501:1 #
0.0013999243350781703787433229990711 805:1 2101:1 4650:1 5072:1 7096:1 7746:1 8850:1 11893:1 12748:1 14193:1 14200:1 16381:1 16449:1 16714:1 17077:1 18584:1 18875:1 19921:2 20119:1 20836:2 21488:1 23909:1 24040:1 26642:1 27433:1 27677:3 30136:2 30968:1 31081:1 31669:1 32131:2 32309:1 35596:1 35767:1 37207:1 38425:2 38675:1 39345:1 41764:1 44892:2 46110:1 46515:1 46773:2 48456:1 49028:2 51098:3 51280:10 55261:2 56480:2 57253:1 57669:2 58476:1 60007:1 60070:1 61088:1 61911:1 62070:2 62451:1 63800:1 64981:1 66154:1 66345:1 67202:1 67340:1 68138:1 68487:1 68637:6 70839:1 74290:1 74473:1 74666:1 76366:1 77075:1 78032:1 78727:1 78934:1 79571:1 79641:1 79791:1 80452:1 80945:2 80972:5 81076:1 81327:1 82060:2 82317:7 82718:1 83030:1 83542:1 84223:1 85500:1 86798:1 87015:1 88781:1 90678:1 91107:3 91480:1 91689:1 91923:1 92204:1 92929:1 94322:1 94719:1 95835:1 96079:4 96242:1 96261:1 96678:1 96766:2 97135:1 97162:1 97362:1 97566:1 97593:1 98240:1 98266:1 99248:1 100075:1 100486:1 102255:1 102405:13 103832:1 104347:3 104424:1 104987:1 105539:1 105938:12 106180:1 106319:2 107394:1 107752:1 108604:2 109800:1 110391:2 110971:1 112387:3 112709:1 112942:2 113051:1 113056:1 113060:9 114492:1 114714:2 114728:1 115655:2 115957:1 115971:1 116028:1 117315:1 117548:1 118015:1 118789:1 119063:4 119168:1 119341:1 120169:1 120568:1 121380:2 123129:1 124082:6 124380:1 124532:1 124734:1 125580:1 125859:1 126259:2 126645:1 126874:1 127703:1 128078:1 128285:2 128634:1 128650:25 129861:1 130386:1 130532:1 130774:1 131086:3 131100:1 131474:1 131944:3 132452:1 135259:2 135885:1 136016:1 136464:2 137797:1 138705:1 139388:1 139452:1 143907:1 144820:1 144876:1 144957:1 145071:1 147132:1 149315:1 149361:1 149507:1 150860:1 150956:1 151044:2 152554:1 152753:1 153844:2 155691:1 156217:1 158267:2 158275:1 158468:1 158564:1 160103:1 162827:2 163506:1 164174:1 165020:1 165303:1 165393:2 166422:1 167002:1 167140:1 167445:1 168052:1 168438:1 169110:1 169821:1 169880:1 171994:1 172249:2 172420:1 172771:1 173156:1 174362:2 174518:1 176368:2 178589:5 179410:1 181275:1 181350:1 182404:1 182600:1 182878:1 183104:1 184183:1 184193:1 184343:1 186479:1 187150:1 187477:1 188036:1 189116:2 189455:1 190028:4 190231:1 190569:2 191521:3 191879:1 191997:2 192049:1 192168:1 192778:4 193171:2 193896:1 195221:1 195497:1 196693:1 198170:1 199093:1 199732:1 200399:1 201688:1 202060:1 #
-0.0013999243350781703787433229990711 392:1 839:2 2629:1 3427:8 5406:1 6120:1 8784:1 11354:1 12746:1 14641:1 15981:1 16673:1 18170:1 18405:1 20139:1 20437:1 20565:1 21582:1 25285:1 26317:1 27430:2 27486:2 38560:1 43671:1 48456:1 52661:1 58327:1 60070:7 61462:1 62336:1 68570:1 69903:2 73376:2 77136:1 78937:1 82060:2 82317:1 85495:2 87365:1 88224:1 88517:1 88885:1 89646:1 90880:1 95822:1 98715:1 102405:2 103832:2 105938:2 105963:5 107225:2 108430:1 110971:1 112791:2 116722:1 117945:1 119063:1 121124:1 123129:2 123571:3 124959:1 127452:1 128650:4 136033:3 137743:1 139303:1 141032:1 144513:1 148095:3 152460:2 153844:2 164427:6 166558:2 170141:1 171573:1 171874:2 172249:1 172253:2 180061:2 180786:1 180926:2 181357:1 186479:3 188298:1 190028:2 192778:1 194716:1 195497:1 #
0.00051098308729051206827920239561536 575:1 2353:1 5707:1 8049:1 8481:1 16596:2 17333:1 18754:1 21289:1 22275:1 22837:1 27004:1 27676:1 28081:2 30745:1 30759:1 30980:1 31685:1 36691:1 37026:2 40024:1 40067:1 42091:1 43018:1 44642:1 48682:1 48985:1 49945:1 51280:1 52169:1 52519:1 54017:1 58659:1 60070:3 61644:1 66031:1 67371:1 68076:2 74309:1 77855:2 77993:1 79101:1 79641:3 81189:1 81544:1 82060:1 82477:1 83374:1 91107:1 92205:1 93276:1 93498:1 96261:1 96449:1 97183:1 98715:1 98796:1 100853:1 102405:5 103832:4 104973:1 105938:4 105963:1 107020:2 109072:1 110079:1 113937:1 114492:1 115971:1 116092:1 119063:2 119275:1 124389:1 124959:1 128650:7 130097:1 132895:1 140222:1 140236:1 142156:1 142265:1 148095:6 148536:1 149913:1 153844:2 155726:2 158244:1 165187:1 168623:1 172249:2 174362:1 176808:1 178589:7 178826:1 181145:1 183357:1 184905:1 186479:3 188704:1 190028:1 191997:2 192957:1 195497:1 196456:1 198718:1 200269:1 #
0.0013999243350781703787433229990711 8784:2 9287:1 11698:1 19742:1 20872:1 21376:1 24865:1 26569:1 29690:1 30531:1 31887:1 36598:1 39341:1 46206:1 47187:1 51290:1 62304:1 64374:1 68637:1 69389:1 70433:1 74549:1 78531:1 80670:1 83284:1 83379:1 83381:1 90794:1 92420:1 92918:1 101500:1 104283:1 104347:1 110033:1 110991:1 112087:2 112410:1 112976:1 113056:1 119554:1 128650:1 131944:1 137383:1 138152:1 138872:1 139120:1 140924:1 141523:1 141619:1 148909:1 149551:1 149756:1 155176:1 157530:1 159247:1 160178:1 162827:1 163831:1 167002:1 168438:1 168717:1 178939:1 183458:1 189489:2 192035:1 193956:1 #
0.0012432617025896891809616517932113 2241:1 2850:1 5247:1 5707:1 5872:1 6120:1 8049:2 8459:1 8481:1 12989:1 15506:1 15809:1 16131:1 20809:1 20999:1 21150:1 22941:1 27004:1 27486:2 27656:2 30605:1 31083:1 32854:1 38425:1 40413:1 41232:1 43196:1 44314:1 52661:1 55606:1 57318:1 60070:3 65114:1 68477:1 72854:1 76366:1 79305:1 79641:3 82060:1 82317:1 84087:1 84826:1 89877:1 90742:1 90830:1 91480:1 98715:1 102405:4 103832:6 105938:2 105963:3 108170:1 108679:1 109072:1 110079:1 118529:1 119063:2 121008:1 121124:1 121367:1 123571:2 124959:1 128650:3 129325:1 136033:1 138537:1 139303:1 139732:1 140236:4 142156:1 142471:1 146678:1 148095:3 149020:1 153844:1 155726:5 157206:1 160948:1 164427:1 170344:1 171573:2 172133:1 178476:1 178589:5 178813:1 180388:1 181145:2 190605:1 192778:1 195497:1 196501:1 202093:1 203380:1 #
-0.0013999243350781703787433229990711 2197:1 3378:1 7246:1 19317:1 23334:1 29238:1 33112:1 38425:5 41972:1 42516:1 44606:1 48162:1 48625:1 51280:31 51366:1 52169:1 62434:1 65217:1 65532:1 69700:1 70448:1 70919:1 76788:1 77283:1 82161:1 83075:1 85161:1 89169:1 98715:1 102405:1 103832:1 104818:1 105821:1 106769:1 115745:1 116291:1 116525:1 119063:1 120114:1 123129:3 124380:1 128650:1 128870:1 135843:1 137269:1 139844:1 140236:1 142477:2 143634:1 144856:1 148376:1 153040:1 155992:1 156853:1 159322:1 165766:1 166774:1 171281:1 175768:1 181781:1 182603:1 184073:1 186479:1 191680:1 192554:1 197427:1 198874:1 199078:1 202076:1 #
-0.0013999243350781703787433229990711 8890:1 20886:1 30531:1 65552:1 69514:2 71781:2 75950:1 76895:2 84370:2 86638:2 96261:2 98817:1 99652:1 100283:1 103772:1 119678:1 123129:2 127172:1 136666:2 140306:1 165722:1 168055:2 178596:1 179284:1 184040:2 189122:1 203252:1 #
-0.00038214823007171370245968478052134 559:5 689:1 3718:1 6138:2 18333:2 18843:2 24404:1 24865:1 26058:1 26280:1 27164:1 27486:1 27677:1 30605:2 32660:1 32854:3 33312:4 34366:1 35488:2 40617:1 43031:1 46773:2 46778:4 47187:2 48456:3 50888:1 51280:1 54017:1 60070:5 65183:4 65425:2 66534:1 67346:1 67612:1 69389:1 69514:1 74995:1 77265:3 78076:2 78121:1 78937:3 79972:1 82060:4 82317:2 83030:2 87215:1 88809:1 89361:2 91107:3 95152:1 101367:1 102405:10 103832:2 105697:1 105938:7 105963:6 107394:1 107720:1 112087:1 113056:5 115971:2 116547:1 116574:1 119063:6 123129:1 123436:1 124082:3 124380:1 124890:1 124959:2 127480:1 128321:2 128650:8 135381:1 135924:1 137144:1 143521:2 143655:1 146082:1 147132:1 148095:4 149990:1 150896:1 154774:1 155726:1 156072:2 156878:1 159884:1 161380:1 164174:1 164427:1 167996:2 172249:1 175371:1 175768:2 178596:1 179121:1 180284:4 182702:1 184905:1 188153:1 189870:1 190998:1 191997:1 192176:1 192778:1 192838:1 194064:1 195053:1 195497:2 201351:2 #
-0.0013999243350781703787433229990711 2304:1 45693:1 50699:2 54017:1 60070:1 80345:1 105963:1 115635:1 118068:1 124532:1 128650:2 144026:1 151501:1 153962:1 162049:2 185514:1 188804:1 195497:1 #
0.0013999243350781703787433229990711 2325:1 9383:1 9444:1 9536:1 12563:1 24842:1 30605:1 36954:1 41524:1 46892:1 49150:1 52231:1 58768:1 59482:1 67096:1 71543:1 88050:1 89290:1 90254:1 90303:1 95045:1 102405:2 105161:1 105963:1 111196:1 112791:1 115655:1 118529:1 119063:1 125751:1 128650:1 132786:1 138392:1 138875:1 148095:1 149020:1 150360:1 157320:1 160244:1 164427:1 178116:1 178596:1 178813:1 179792:1 188252:1 192778:1 200593:1 #
0.00027891200483466140058741444818224 185:1 575:1 1167:1 1327:2 4316:1 6906:1 7745:1 7748:1 8672:1 9667:1 9978:1 10739:1 12897:2 13092:1 14515:1 16386:1 16449:1 16648:1 17461:1 18275:2 19912:1 23556:1 23655:1 26251:4 27486:1 28308:1 29216:1 30605:2 31260:1 32199:1 32854:1 33171:2 33402:2 37197:1 39480:3 40761:2 41476:1 44062:1 47193:1 48456:1 49085:1 49435:1 50587:1 51280:1 51678:2 52880:1 53777:2 55056:1 58931:1 60070:1 60270:2 60693:1 61917:1 63174:1 63548:1 63936:1 69469:1 71716:1 74471:2 74643:1 77094:2 78531:1 79305:1 79641:1 80016:1 81206:1 82317:2 82742:1 83750:1 84370:4 85629:1 87912:1 90180:1 90707:1 90719:2 90830:1 91107:2 91139:1 91660:4 93185:1 93889:1 96824:1 97036:1 98540:1 98586:1 98715:1 99484:1 101126:1 101661:1 101932:1 102405:5 102564:1 102632:1 103832:2 105415:1 105938:1 105963:4 106319:1 108377:1 108434:2 111728:1 111752:1 112897:1 114064:1 115971:4 117310:1 118529:1 118787:2 118794:1 119063:2 119551:1 120115:2 120349:2 121253:1 123571:3 124082:1 124380:5 128650:4 130009:1 132851:1 133381:2 134378:1 135843:1 142166:1 143329:1 143962:3 146071:1 146648:1 147601:1 148604:1 149547:1 151393:1 152687:1 152951:1 153048:1 154003:1 155505:1 155726:3 156200:3 158331:1 161851:1 162468:1 162523:1 162605:1 164248:1 164427:2 165471:1 166294:1 167091:1 168355:1 169643:1 169995:1 171874:1 172249:2 173852:1 174913:1 175163:4 175571:1 176770:2 178270:1 178574:1 179086:2 181335:2 181758:1 181875:1 183019:1 185743:1 187351:1 189870:4 190059:1 190772:1 194366:4 194837:2 195053:2 196594:1 197673:2 197866:2 199128:1 #
-0.00088279637864296304876343679524098 3286:2 3899:1 6138:3 6617:1 7848:1 8810:1 9415:2 10008:1 10023:4 11523:1 13205:1 15763:1 16583:1 17462:1 18052:3 20649:1 22173:7 23343:1 24325:1 24865:1 25285:1 25426:1 26317:3 26642:3 27677:4 29929:1 30220:1 30593:1 30605:1 31260:2 32971:1 33107:1 35792:3 38388:3 38994:3 41028:1 41031:1 41973:1 42091:1 43170:1 43196:1 43296:2 45129:1 45818:1 47187:1 49831:1 51280:2 52753:1 54017:1 54783:1 54814:2 58736:1 58880:1 58990:1 59148:4 59405:1 59593:1 59615:1 59724:1 60070:1 60751:1 62797:3 63363:3 65425:1 67346:1 67584:1 68532:1 70287:1 74309:1 74337:1 74791:1 75916:1 75957:1 78076:2 78937:17 79305:2 79791:4 81424:1 82317:4 82863:1 84370:13 87956:6 88050:3 90135:1 90667:1 93101:3 94940:1 95226:1 97430:2 97924:1 98266:5 98715:1 99632:1 100562:5 102099:1 102255:40 102405:9 103359:1 103832:1 104594:2 105938:2 105963:3 106024:5 106293:1 106924:2 107514:1 107752:1 107861:1 113962:1 114644:2 114982:2 115055:1 115974:1 117216:7 117643:1 119063:2 119736:2 121367:1 122752:8 123129:2 123571:2 123793:1 124082:1 124380:1 125442:3 127478:1 128035:1 128212:2 128650:9 129675:33 133776:2 135944:1 136085:1 137144:1 138875:3 140222:1 141595:7 141933:2 142381:1 143414:1 144826:4 146146:2 146984:1 148047:3 148095:1 149722:4 151976:1 153500:2 153844:2 153937:1 155018:1 155596:1 155974:1 156442:4 157925:1 158303:1 158564:1 159432:6 160428:1 161851:4 162041:1 162145:6 163345:1 163554:4 164053:4 164106:1 164174:64 164959:1 166806:1 166827:1 167428:2 167774:5 167996:3 168486:1 168705:3 172249:1 173369:1 174502:1 175004:2 175768:1 177297:4 177378:1 179271:1 180173:1 180284:1 181350:1 182679:1 184193:2 187680:1 188292:1 189177:1 189870:1 189935:1 190028:1 190550:1 191089:6 191256:3 191410:1 191996:1 192778:1 195053:4 196113:2 198171:1 198994:1 200450:1 201351:1 203281:1 #
0.0013999243350781703787433229990711 3607:2 29784:1 67130:3 88517:1 91820:1 98715:1 99231:1 103832:1 105938:2 107664:1 114870:1 115971:1 119063:2 130263:2 158003:1 181993:1 189140:2 191997:1 201836:1 #
-0.0013999243350781703787433229990711 16183:1 17072:1 19408:1 22424:1 27486:1 30220:1 32258:1 38425:1 46773:1 59148:1 73276:1 79305:1 82317:2 91480:1 91536:1 96261:2 96560:1 105938:1 109072:1 112640:1 115744:1 115971:1 124082:2 124380:2 138875:1 141150:1 142381:1 148095:1 153844:1 154238:2 163554:3 172249:1 174286:1 174362:1 180391:1 #
0.0013999243350781703787433229990711 6120:1 6396:1 6875:1 8049:1 16591:1 18105:1 20883:1 21150:2 21289:1 26111:1 26317:1 27257:1 35404:1 36827:1 43196:1 44701:2 47024:1 47193:1 49431:1 55606:1 56480:1 59437:2 60070:4 62983:1 64031:1 66941:1 73590:1 74309:1 74563:1 77919:1 79305:2 81723:1 82317:2 84005:1 88517:1 94335:1 96261:1 98715:1 99984:1 102170:1 102405:10 103832:2 105938:1 106180:1 107225:1 108170:2 108446:1 114131:1 115655:1 116166:1 119063:3 119339:1 120723:1 120918:1 122549:1 122792:1 123129:1 123571:3 124568:1 124959:2 127702:1 128650:2 129325:1 130097:2 132058:1 135784:1 136791:1 139732:1 141850:1 141933:1 147275:1 148095:6 148578:1 150654:1 153844:2 156137:1 159381:1 163423:1 171874:2 172249:1 172856:1 178589:3 183594:1 184905:1 186479:1 189870:1 190028:1 191329:1 191997:1 202345:1 #
0.0013999243350781703787433229990711 709:1 17910:1 18843:1 20370:1 21150:1 23655:1 25299:1 25821:1 27164:1 31785:1 36157:1 36609:1 37718:1 38412:1 38425:1 43196:1 43634:1 46773:1 50303:1 51341:1 54017:1 54672:1 57318:1 59612:1 60070:1 68700:1 73246:1 82317:1 90830:1 92253:1 97786:1 99744:1 101605:1 102405:2 105938:1 105963:2 107372:1 112000:1 113056:1 124082:1 128650:4 131499:1 138080:1 148095:1 166199:1 174286:1 177004:1 178589:1 195497:2 196984:1 199252:1 202086:1 #
0.0013999243350781703787433229990711 2629:1 5406:1 6120:1 18170:1 23655:2 24524:1 26697:1 27486:1 27677:2 30605:1 37644:1 37675:1 38425:1 38862:1 40325:1 45809:1 46164:1 52484:1 55606:1 56897:1 60070:2 67930:1 79641:2 81399:2 82317:2 82564:1 88224:1 92856:1 95532:1 102405:1 105938:3 105963:2 112791:1 114131:2 115655:1 115971:1 116722:1 124082:1 125946:1 126259:1 128650:1 130849:1 132681:1 141355:1 147899:1 148095:4 152460:2 158564:1 167002:1 170632:2 171874:1 172253:2 174362:1 177927:2 178589:1 186022:1 186479:1 192778:2 195497:2 198876:3 #
0.0013999243350781703787433229990711 2353:1 3028:1 11931:1 15308:1 16626:1 17066:1 27677:1 29088:1 30220:1 30605:1 31260:2 34240:1 35400:1 47193:1 47356:1 48456:1 49279:1 50213:1 51280:1 54017:1 57944:1 59813:1 60070:2 70669:1 77907:1 79305:1 79938:2 82060:1 82317:1 85172:1 85439:1 88554:1 95045:1 98715:1 102405:2 102471:1 103832:2 105938:3 105963:4 106161:1 106319:1 108170:2 111356:1 113725:1 115655:1 119063:1 123571:4 123984:1 124082:1 128650:1 131381:1 133542:1 134378:1 138549:1 141355:1 148095:2 150514:1 153844:1 166751:1 168355:2 174362:1 184040:1 188217:1 192778:1 192957:1 198972:1 202725:1 #
0.0013999243350781703787433229990711 2316:1 2460:1 2554:1 8049:2 9153:3 12232:1 13092:1 19888:1 22173:3 22726:1 26759:1 30605:1 30854:1 31260:1 34131:2 34240:1 38807:1 43350:1 46791:1 48456:1 51280:1 53200:1 60070:2 63687:1 66490:1 79641:2 86990:1 87893:1 93718:3 95752:1 97786:1 100836:3 102405:3 103832:1 105963:2 107225:3 107358:1 109273:1 112791:1 115655:1 115971:1 119063:1 119554:1 123571:3 124082:1 124959:2 125608:1 128650:6 130294:1 131585:1 134374:2 140236:1 141150:2 148095:4 153844:2 153979:1 155531:1 155726:1 159884:1 160948:1 168355:1 171874:1 179662:1 183580:1 195497:2 195887:1 198638:1 200809:2 #
-0.00032448598289851979812117854784503 1231:2 8049:4 9888:1 10462:2 12426:1 15308:1 15564:2 17294:1 19432:1 19660:1 20154:1 26697:1 29851:1 30220:1 38425:2 41232:1 43196:1 43279:1 45300:1 50065:2 51280:2 58473:2 60070:2 69514:2 69668:3 70292:2 73405:1 73526:2 74835:1 79305:7 79641:1 91480:1 97593:2 98176:1 98450:5 99482:2 103832:8 104268:2 106180:2 110512:1 115655:1 115971:2 119063:4 123502:1 123571:1 124082:2 128650:3 129353:1 134068:2 138875:1 138982:1 139751:1 141150:1 146678:1 154570:1 157588:2 158003:1 158564:2 167563:1 174286:1 179908:1 180362:3 181905:1 182031:1 184183:2 186479:1 188118:1 188784:1 189089:1 191997:2 194059:1 198745:1 202614:1 202958:1 #
-0.0013999243350781703787433229990711 8:1 392:2 1007:1 2494:4 3630:1 4243:1 14421:1 14832:1 16052:1 19304:3 20836:1 21150:1 21289:1 21664:1 21737:1 22726:1 26317:3 26642:9 26697:1 26807:2 27486:2 30605:2 32591:1 36665:1 37644:1 40713:1 43325:1 44744:1 47187:1 48456:1 51280:3 52072:1 52519:1 52661:1 53458:1 54017:3 56480:1 58327:1 59033:1 60070:5 60188:1 60406:1 65065:1 66255:1 68076:1 69668:1 70634:2 74309:1 78076:1 78937:1 79641:1 82060:4 82317:6 85495:1 87215:1 90830:3 91107:4 91377:2 91689:3 91762:1 93012:1 96789:1 97430:1 98715:2 101156:1 102405:8 103832:2 105539:1 105726:1 105938:1 105963:9 106319:2 108171:1 109521:4 114492:1 115655:1 115752:2 115971:3 118529:1 119063:2 119934:1 123531:1 124082:1 124151:2 124959:2 125763:1 127172:1 127759:1 128620:1 128650:4 129405:1 131474:2 134068:1 135259:1 135358:2 136033:1 137580:1 138328:1 139303:1 141355:1 143121:1 147501:3 148015:1 148047:2 148095:4 152460:1 153425:1 153844:1 154995:1 156864:1 157502:1 159482:1 161595:7 163402:1 164120:1 164427:4 166199:3 168198:1 168603:1 169107:1 169744:1 170169:1 172134:1 172249:2 174286:1 175768:1 177081:1 178589:2 178739:1 180623:1 181520:1 181905:1 182681:1 184905:1 186479:3 187150:1 189271:1 192093:1 192778:2 195053:1 195497:6 #
-0.0013999243350781703787433229990711 2572:1 2619:1 3378:1 3718:1 4677:1 5406:1 6015:1 9288:1 10023:1 13092:1 13249:1 17077:2 20570:1 21289:2 22856:1 30220:1 31887:1 32660:1 34240:1 34334:1 35488:1 38907:1 40146:1 41478:3 42091:3 46108:1 50116:1 50534:1 52072:1 53400:1 54017:2 57096:1 59092:1 60070:1 62137:1 62335:1 64000:1 68487:2 73492:1 75095:1 75340:1 78835:1 79641:1 82060:2 82317:2 83374:3 87131:1 88517:1 90086:1 91107:1 91480:3 91752:1 96261:1 98715:3 100358:1 101014:2 101208:1 101928:1 102405:1 103832:4 103950:1 104325:1 105938:6 107225:1 107715:1 108625:4 110366:1 111758:1 112000:1 113555:1 114836:1 115547:1 115971:4 116984:1 119063:2 121669:1 122011:1 122533:1 123571:6 124082:4 124959:2 127404:1 127480:1 128212:2 128650:3 129963:2 131499:1 132058:2 132786:2 133796:1 135957:1 139732:1 140536:1 142782:1 143907:1 146205:1 147899:1 148047:1 148095:1 149311:1 150636:1 151511:1 152630:1 153842:1 153844:1 155726:1 160178:1 160409:1 162827:1 163402:1 164279:1 164427:1 165572:1 168031:1 170344:1 171573:1 175768:2 177703:2 178589:1 182739:1 184193:1 184585:1 185206:2 186479:1 188292:1 189870:1 192777:3 192778:1 195497:2 196501:2 198231:1 199971:1 199993:1 #
-0.0013999243350781703787433229990711 215:1 296:1 463:1 2636:1 4817:1 6120:1 8049:1 8486:1 8752:1 8784:1 9992:1 10023:1 10102:1 10474:1 10503:1 11307:3 11507:1 15101:3 16123:1 16648:1 16673:1 16939:1 17734:2 18170:1 18444:1 19274:1 20500:1 20521:1 21672:3 22492:2 22580:1 23655:1 23798:1 23960:1 25665:1 26642:1 26842:1 27486:1 27656:1 27914:1 29646:2 30620:2 32082:1 33048:1 35241:1 37644:1 38093:1 38525:1 38882:1 39077:1 39556:1 41232:1 43368:1 45243:1 46101:1 46164:1 48456:1 50303:1 51710:1 52169:1 53205:2 54161:1 56480:1 58880:2 59148:1 60070:5 60327:2 61680:1 62436:2 62992:1 63998:1 65766:1 68076:2 69514:1 69749:1 70983:1 72565:1 73361:1 76327:1 77097:1 77380:1 78076:1 78121:4 78601:1 78937:1 79064:1 79305:1 79739:5 82060:4 82179:2 82317:3 83174:1 83374:1 83381:1 85007:1 88517:3 88760:1 89061:1 89335:1 90742:1 90794:1 91107:1 92020:1 96261:1 96467:1 97430:1 98180:2 98715:2 99396:1 100368:1 100836:1 102405:2 105938:2 105963:6 107020:2 108893:1 110079:1 110936:1 111067:1 115971:1 116626:2 116722:1 118539:1 119063:4 119852:1 121516:1 123129:6 123571:3 124082:2 128650:2 132702:1 132759:1 133529:1 133847:1 134068:1 134433:1 135358:1 136033:7 137609:1 139133:1 139303:1 141039:1 141755:1 143521:2 143894:1 145578:1 145951:1 145999:1 146146:1 147021:1 147212:1 148095:6 150918:1 151487:1 151682:1 151762:2 152251:1 153844:1 155319:1 156137:1 157424:2 158531:1 158564:1 160995:2 161043:1 161970:1 162192:1 162897:1 163402:1 163694:1 163939:2 164174:1 164427:1 165187:1 165344:2 165833:6 168055:1 169044:1 170116:4 171874:2 171929:1 172249:1 172530:1 173696:1 174772:2 175768:5 180044:1 181093:1 183608:1 185289:1 185620:1 185646:1 186343:1 186479:2 187732:1 189870:2 190073:1 190136:1 191997:1 192778:1 193765:1 194964:1 195053:1 195093:1 195497:2 197830:3 198094:1 203793:1 #
0.0013115002804191008660417150366584 392:1 8481:1 10541:2 13092:1 14800:1 16456:1 16596:1 18170:1 21289:3 26697:2 27384:1 27486:2 27677:1 30605:1 31746:1 34366:1 37235:1 37644:2 40395:1 42091:1 43031:1 43196:2 48456:1 50026:1 51627:1 54017:1 60070:1 60363:1 61644:1 62969:1 67026:1 71516:1 75622:1 79972:1 80945:2 85495:6 87215:1 91107:1 91480:1 96718:1 98715:1 100562:1 102376:1 102405:5 103832:2 105963:3 108679:1 112720:1 115655:1 115971:3 124959:3 127138:1 127478:1 128620:1 128650:2 134068:1 139303:1 139732:1 141850:1 141910:1 142971:1 148095:3 152460:6 154995:1 155596:1 163846:1 165161:1 166199:2 167996:1 169455:1 171874:1 172249:3 176861:1 178270:2 178530:1 178589:2 180284:1 182258:1 184040:1 184183:1 184992:1 185206:1 186479:4 186865:1 190028:1 190059:1 191997:1 192778:2 194060:1 195497:1 202895:1 #
0.00054325518166139781343904058275029 774:1 1446:1 1957:1 2719:1 2871:2 3374:1 3607:1 4657:1 6271:1 7150:1 7687:1 8468:1 8526:1 9579:1 10552:1 10591:1 11386:1 11722:1 12617:2 12637:1 14599:1 15084:1 15289:2 15761:1 16134:1 16340:1 17369:1 17380:1 17868:1 18067:1 18313:1 18569:2 19043:2 19208:1 19424:1 19708:1 20285:1 20495:1 22275:1 22339:1 22373:1 23003:1 23343:1 24589:1 26074:1 26352:2 26511:1 26535:1 27401:1 27476:1 27656:1 28339:1 28623:1 29476:1 30106:1 31930:1 32086:1 32094:1 32454:1 33090:1 33426:1 33875:1 34366:1 34798:1 35792:1 37171:1 37559:1 38334:1 38476:1 38532:1 39110:1 39835:1 40899:1 44456:1 44697:1 44737:1 45105:1 45561:1 47911:1 48467:1 48637:1 49333:1 49556:1 49702:1 50320:1 51280:1 52476:1 52778:1 53108:1 53205:1 53965:1 54067:1 54151:1 54311:1 54515:1 54889:1 56325:1 57243:1 58065:1 58632:1 59709:1 60190:1 60658:1 60719:1 60924:1 61252:1 61412:1 61492:1 61511:1 61651:1 61659:1 61680:1 62533:1 62658:1 63144:1 63917:1 64475:1 64567:1 66997:1 67217:1 68747:1 69492:1 70333:1 70983:1 71092:1 73555:1 73585:1 73907:1 74432:1 74504:1 75076:1 75215:1 75477:1 75572:1 76665:1 77903:1 78121:2 80084:1 80510:1 80969:1 81943:1 82179:1 82586:1 83677:1 84342:1 84402:1 85067:1 85071:1 85189:1 85221:1 85433:1 85471:1 85512:1 85549:1 85577:1 86046:3 86096:1 86666:1 87041:1 88250:1 88587:1 88719:1 91043:1 91124:1 91480:5 92173:1 92738:1 92837:1 93025:1 93065:1 94088:1 94390:1 94759:1 95995:1 96251:1 96268:2 97154:1 97708:1 97927:1 98200:1 98439:1 98486:1 98567:1 99074:1 99083:1 99851:1 101737:1 102181:1 102255:10 102338:1 102405:2 103837:1 104703:1 104743:1 105373:1 105938:4 106452:1 108174:1 108611:1 109326:1 109927:1 109995:1 110851:2 111175:1 111388:1 111644:2 111720:1 112632:1 112897:1 113997:1 115092:1 115102:1 115971:1 116167:1 117613:1 117769:1 118606:1 119111:1 121133:1 121612:1 122330:1 123191:1 124380:9 124577:1 125648:1 126290:1 126779:1 127172:1 127306:1 127417:1 127482:1 127787:1 129267:1 129752:1 129968:1 130106:1 130129:1 130658:1 131434:1 131636:1 131662:1 132058:1 132705:1 133374:1 133588:1 133776:1 134160:2 134438:1 134680:1 135528:1 137789:1 138328:2 138401:1 139586:1 139648:1 139997:1 140141:1 140484:1 140702:1 140707:1 141070:1 141595:1 141627:1 142367:1 143951:1 144000:1 144076:1 144143:1 146324:1 146327:1 146347:1 146954:1 146978:1 147501:1 148752:1 149464:1 151823:1 152194:1 152567:1 152665:1 153337:1 153367:1 154706:1 156137:1 157843:1 158116:1 158213:1 158254:1 159857:1 160366:1 160819:1 161208:1 161270:1 162145:1 162575:1 162951:1 163457:1 163549:1 163784:2 163909:1 164174:13 164257:1 165697:1 166214:1 166630:1 167996:1 168359:1 168441:1 168552:1 168568:1 169506:1 169838:1 170636:1 171081:1 171568:1 171573:1 173049:1 173305:1 173422:1 174901:1 175003:1 175860:2 176939:1 177241:1 177244:1 177735:1 177918:1 179383:3 179427:1 180332:3 180680:1 180688:1 180974:1 183956:1 184315:1 184427:1 185427:1 185656:1 186164:1 186468:1 187061:1 189780:1 190739:1 192751:1 192957:1 194524:1 195496:1 195601:1 195610:1 197791:1 199232:1 199483:1 199691:1 199825:1 201550:1 202304:1 202765:1 203529:1 203726:1 #
-0.0010595173967622298957097504157332 569:2 2311:1 10237:2 12658:2 35434:2 47480:1 58168:1 59309:2 60070:1 64381:1 68355:2 77265:6 77601:2 82060:2 82863:1 82989:1 93535:2 96094:1 96288:1 109537:2 114447:2 119063:3 126505:2 127446:1 129076:2 131740:1 132786:1 137144:1 137528:1 142793:1 159432:1 176782:1 182031:1 191623:2 192778:1 196985:2 #
0.0013999243350781703787433229990711 392:2 2471:1 5872:1 10541:4 11931:1 12116:1 21289:1 23445:1 24676:1 26317:1 26697:1 27004:1 27486:1 30605:1 36047:1 37235:1 37644:1 46108:1 47181:2 52661:1 60070:2 78512:1 79972:1 80945:3 85495:3 91107:1 97430:1 98715:2 100562:1 102405:5 103832:2 105938:1 105963:1 108171:1 114810:1 115971:1 119063:2 123129:1 124380:1 127478:1 128650:6 134378:1 141304:1 146678:1 148095:1 152460:3 160199:1 163402:1 164427:1 166199:1 167428:1 168682:2 174362:1 180609:4 182600:2 184905:1 192778:1 #
-0.0013999243350781703787433229990711 844:1 30605:1 33954:1 51280:1 54093:1 60070:2 74309:1 80452:1 97783:1 98715:1 102405:1 103832:1 119063:1 120704:2 123129:1 124430:1 125763:1 128650:1 129011:1 133450:1 137144:1 143060:1 147334:1 160043:1 171573:1 182872:1 186479:2 #
-0.0009059338846080641424740598210974 4321:1 6335:1 23655:1 35404:1 37644:1 41577:1 47187:1 49044:1 58131:1 60019:1 60070:1 68793:1 77855:1 78937:2 79791:1 82308:1 82317:1 82953:1 96251:2 105938:1 117255:1 120546:1 121587:1 124430:1 127608:2 128650:1 129675:1 131086:1 141509:1 148058:1 148536:1 158002:1 158003:1 158564:1 163361:1 165105:1 172249:1 172331:1 175768:2 182872:1 190752:2 193765:2 194846:1 #
-0.0013395589082415466659209402067177 8944:1 15047:1 34334:1 37026:1 59148:1 69514:1 71781:3 86638:1 107347:1 116285:1 123129:1 136666:1 160998:2 164174:1 183357:1 #
-0.0013999243350781703787433229990711 8784:1 21288:1 24712:1 27486:1 30313:1 38425:1 48456:1 52169:1 55968:1 57366:1 70919:1 82060:1 82477:1 91480:1 100562:2 102405:1 104347:1 105938:1 116081:1 119063:1 128222:1 128650:2 135256:1 148095:1 156618:1 167865:1 167996:1 171573:1 180284:1 184172:2 189442:1 190059:1 192778:1 #
0.0013999243350781703787433229990711 9818:1 10542:1 12721:1 19921:1 20437:1 22726:1 23761:1 27004:1 30531:1 30605:2 32368:1 34131:1 34240:1 37118:1 41478:1 43562:1 45105:1 45154:1 46339:1 49688:1 49843:1 58219:1 59641:1 60070:2 63250:1 64397:1 65558:1 68637:1 70805:1 71477:1 72649:1 73259:1 76366:1 77075:1 77938:1 79009:1 79641:1 82317:2 82355:1 85368:1 88497:1 89877:1 89968:1 89991:1 90894:1 91480:1 98715:2 98716:1 100562:1 102405:1 103193:1 103606:1 103832:2 104347:2 106046:1 106758:1 115125:1 115912:1 115971:1 121805:1 122849:1 123571:5 124082:3 124959:1 125997:1 127478:1 128650:1 130117:1 133054:1 134231:1 136325:1 136809:1 138827:1 139676:1 140670:1 141150:1 141355:1 144325:1 146517:1 148095:4 148286:1 150870:1 153003:1 153612:1 153656:1 153844:1 154276:1 155507:1 159532:1 160103:1 160652:1 163222:1 163767:1 164427:1 168355:2 168623:1 172192:1 173461:1 174823:1 177539:1 178062:1 178263:1 179032:1 179855:1 180013:1 180284:1 184096:1 187491:1 188704:1 189870:1 190028:1 192778:1 194129:1 195497:1 198945:1 #
0.0013999243350781703787433229990711 185:1 1336:1 8049:1 8524:2 13420:1 17200:1 21150:1 21288:1 23347:1 26569:2 39879:1 40071:1 43031:2 43196:1 45095:1 56480:1 60070:4 62989:2 66630:1 68461:1 79305:1 79938:1 80922:1 82317:4 82477:1 88809:1 90067:1 90830:1 91480:7 98715:2 100562:1 102405:1 103832:11 105938:4 107262:1 109384:1 110851:1 110886:1 116262:1 122533:1 122792:1 122849:3 123129:1 123571:1 124082:1 126818:1 127488:1 128650:4 130306:1 131086:1 131270:1 135259:1 135900:1 138562:1 144924:1 145824:1 146281:1 148095:4 151690:1 153844:1 155726:1 156050:1 157320:1 157977:1 157978:1 159269:1 162192:2 164174:1 171023:1 174362:1 177131:1 178589:1 179284:1 181145:1 181905:1 187610:1 190028:1 190909:2 191404:1 191548:1 195497:2 197830:1 200873:1 #
0.0013999243350781703787433229990711 13327:2 30605:1 51280:1 60070:1 61055:1 80945:1 82317:1 91107:1 97786:2 102405:1 103832:2 105938:2 105963:1 114870:2 115081:1 119063:1 122533:1 123571:2 124425:1 124791:2 130263:3 147326:1 148095:2 171874:1 179933:3 182600:1 190059:2 191997:1 192957:1 #
-0.0013999243350781703787433229990711 6199:1 20836:3 21289:1 21391:1 27486:1 30605:1 43630:1 52661:1 74967:2 79938:1 102405:2 105938:1 119063:1 128620:1 128650:2 129025:1 143521:1 148095:1 153844:1 #
-0.0013999243350781703787433229990711 1264:1 2850:1 30189:1 30220:2 38675:1 41973:1 60070:2 63912:1 66023:2 68352:1 68637:1 79641:1 80664:1 82317:1 88517:1 91939:1 95711:1 102405:4 102551:1 104268:1 106662:1 109182:1 112725:1 113056:1 115971:1 118698:1 119063:3 119503:1 119959:1 124082:1 128321:2 128650:2 128931:1 134378:3 138802:1 143060:1 146105:1 147334:1 150874:2 159269:1 159884:1 160043:1 165715:3 167602:1 171348:1 172384:1 173984:1 174913:1 179500:1 192778:2 195497:1 197201:2 197315:1 198279:1 #
-0.0013999243350781703787433229990711 16229:1 20570:1 23683:1 27004:1 27677:2 29430:1 30220:1 30605:3 31260:3 38425:1 40845:1 41569:1 43237:1 45550:1 46491:1 49115:1 51280:1 60070:2 67160:1 71640:2 79009:2 79305:1 80945:2 82317:2 90801:1 91107:1 91480:1 92254:1 100562:2 102405:4 102974:1 105938:2 106180:1 107225:3 119063:1 121376:1 123571:1 127716:1 128650:2 129025:1 129062:1 130306:1 130697:1 135646:1 146678:1 148095:1 153844:1 156442:1 162832:1 163430:1 171874:1 172909:1 178589:3 179062:1 181610:1 190028:1 190998:1 191997:1 192778:1 195497:1 #
-0.0013999243350781703787433229990711 23655:2 25319:2 26697:1 29299:1 36587:1 65558:1 82060:1 84588:1 85524:1 90830:1 97430:2 100562:1 103214:1 105963:1 112791:1 124380:1 128040:1 148095:1 164427:2 165698:1 172253:1 178589:1 186479:1 195497:1 #
0.0013999243350781703787433229990711 2101:1 2134:1 8049:1 8481:1 10664:1 23835:1 26317:1 27677:1 31887:1 36876:2 49048:1 51280:2 65558:1 70634:1 74967:1 74990:1 79641:1 82317:2 84481:1 93012:1 94931:1 100142:1 100562:1 105709:1 105963:1 109072:1 112087:1 119495:1 120115:1 121037:1 128650:2 145354:1 155631:1 184193:1 191997:1 195497:2 198502:1 202086:1 #
0.0013999243350781703787433229990711 24404:1 25156:1 25307:1 26111:1 26550:1 27357:1 29319:1 37719:1 42340:1 47146:1 47950:1 51280:1 55028:1 62536:1 67507:1 73923:1 85550:1 86133:1 92362:1 93499:1 102793:1 103832:1 105963:1 123984:1 124380:1 127172:1 127501:1 130448:1 143121:1 148022:1 153707:1 157174:1 160746:1 161273:1 162700:1 165027:1 169567:1 169676:1 170344:1 170645:1 171734:1 181366:1 183760:1 199193:1 199537:1 202914:1 #
-0.0013576999808946545351961976422217 453:3 1541:1 2209:2 3256:1 5036:1 5169:1 5768:1 5915:1 8088:1 11003:2 13403:1 13545:1 15417:1 19441:1 21327:7 22205:1 22827:1 23343:1 23485:2 23507:1 24473:1 25195:1 26111:2 26917:1 29146:1 29407:1 31484:1 32460:1 32915:1 33041:1 33153:1 33175:1 35459:1 38869:1 39065:1 39874:1 40619:1 42091:5 44884:1 46892:1 46977:1 46994:1 49562:1 49589:1 50601:2 53715:1 56992:1 59148:1 59325:1 59586:1 62196:1 62354:1 63394:1 64733:1 67799:1 68388:1 68637:1 69434:1 69582:1 70897:1 73677:1 74591:1 76621:1 79316:1 80778:1 81230:1 83241:1 85316:1 86721:1 86863:1 88373:1 88840:1 89563:1 90213:4 91359:1 91480:6 92649:1 93126:1 96323:1 97753:1 99954:1 101432:1 102036:1 102094:1 102405:1 103116:1 104959:1 105938:1 107629:1 109211:1 110897:1 111137:1 111260:1 111479:1 111932:1 112090:1 112216:1 113453:1 115267:1 118895:1 119002:1 120214:1 121838:1 121987:1 122533:1 122566:1 122569:1 122982:1 123571:1 124741:2 127172:2 128241:1 128691:1 134239:1 138160:1 138328:2 138727:1 139721:1 140321:1 140563:1 141324:1 141624:1 141755:14 144227:1 145996:1 148231:1 148501:1 149355:1 149633:1 150769:1 151363:1 153355:1 155726:1 158456:1 161755:1 164975:1 166214:1 167788:1 168853:1 171248:1 171747:1 175690:1 175862:3 178024:1 178865:1 179592:1 180078:1 181381:1 181701:1 183013:1 183472:2 183933:3 184535:1 185897:1 186634:1 187023:2 188023:1 188078:1 189539:1 189870:1 190341:2 190706:1 191526:1 191653:2 192128:1 193565:1 193933:1 194129:2 194919:1 195865:2 196796:3 197510:1 198273:1 198980:1 199264:1 201551:1 202901:1 203492:1 203535:1 #
-0.00043848015525322606329716723649881 3972:1 16596:1 20139:1 24372:1 28803:1 30503:1 34057:1 42875:1 53205:1 54604:1 78531:1 84076:1 87315:1 91480:1 94986:1 96251:1 98715:2 102405:3 103832:1 104141:2 105023:1 110851:1 119063:1 120012:1 123571:1 124380:1 125763:1 128650:2 129391:1 134998:1 136135:1 140924:1 141755:1 152238:2 153844:1 155726:1 156515:1 156878:1 163705:1 164427:1 167042:1 167865:1 169041:1 171444:1 175768:1 182878:1 184533:1 184787:1 189870:1 190879:2 199628:1 203405:1 #
0.0013999243350781703787433229990711 892:1 2629:1 4283:1 6779:1 7388:1 11058:1 14803:1 15101:2 16449:1 19317:1 21289:1 23909:1 25923:1 26317:1 27486:1 30605:1 31260:2 31745:1 33312:1 33769:1 37644:1 38425:1 40485:1 40869:1 40997:1 41569:2 42091:1 48808:1 50610:1 54017:1 55353:1 56578:1 56956:1 60070:3 61680:1 63249:1 64844:1 68136:1 74570:1 74666:1 77265:3 78076:1 79305:1 79791:1 79972:1 81890:1 82060:1 85495:2 87215:2 89791:1 90306:2 90659:1 91107:1 91480:1 98715:1 100722:1 101932:1 102405:8 102826:1 103832:2 103984:1 105938:2 105963:2 106493:1 109783:1 112720:1 112791:1 113621:1 115655:2 115752:1 117310:1 119063:1 119554:1 120305:1 123129:2 123571:1 123921:3 125256:1 127452:2 128650:5 131598:1 137144:1 138562:1 139547:1 139732:1 139856:1 140236:1 141019:1 141523:1 141933:1 142265:1 142471:1 143020:1 145438:1 147086:3 148481:1 148744:1 152460:2 154773:1 155726:1 158003:1 160043:1 163402:1 164360:1 164427:2 165090:1 165161:1 167002:1 167035:1 168218:1 171874:1 172253:1 172741:1 172926:1 180389:1 180563:1 181562:1 184834:1 186479:2 186484:1 192719:1 195497:1 196095:1 197830:1 202221:1 #
-0.0013999243350781703787433229990711 10808:1 21288:1 42091:1 61321:1 72854:1 73244:1 88939:1 89646:1 91377:1 91480:1 93012:1 98715:1 102243:1 102405:1 103832:1 122792:1 129025:1 141150:1 146065:1 181145:1 195497:1 #
0.0013999243350781703787433229990711 4515:1 6120:1 6975:1 15454:1 16449:2 27081:2 27526:1 34131:1 36876:1 39480:1 44738:2 51280:1 52661:2 54619:1 54944:1 58613:1 60070:4 62053:1 64276:1 65558:1 66915:1 68545:1 74529:1 75476:1 77907:1 78848:1 79641:1 81582:1 82060:1 82317:2 84212:1 85495:3 85936:1 89489:1 90830:2 91480:4 91917:1 95999:1 96363:1 99726:1 99744:1 100008:1 100562:2 101497:1 102405:1 105391:1 105938:1 105963:5 109783:1 113056:1 113621:1 115655:1 119063:1 119934:1 120305:1 120745:1 123129:3 124082:1 128650:1 129025:1 131911:1 131944:1 138875:3 141150:1 148095:3 149723:1 150567:1 152460:1 156137:2 164427:1 166750:1 167002:1 167996:4 168855:2 172253:1 178589:1 180284:1 183800:1 190028:1 191997:1 195497:2 197424:1 #
0.0013999243350781703787433229990711 5877:1 15564:1 21150:1 25852:1 26807:1 28845:1 35295:1 42041:1 49945:1 51280:1 58880:1 60070:1 82317:2 96261:1 96759:1 105938:2 106248:1 106319:1 109762:1 123129:2 128650:1 131474:2 135928:1 136569:2 148095:1 153425:1 165187:3 192778:1 195497:3 #
0.0013999243350781703787433229990711 1968:1 9153:1 17705:1 19494:2 23307:1 30593:1 32854:1 33771:1 37392:1 52173:1 55378:1 60070:3 62203:2 63513:1 65336:1 75763:1 78403:1 78902:1 79012:1 82317:3 84087:1 90830:2 98228:2 98715:3 101680:1 102405:1 103800:1 103832:3 104862:1 105963:3 109537:1 109800:1 114810:1 119063:1 128478:1 128650:2 131474:2 136033:1 137144:2 151757:1 157206:1 157987:2 161324:1 164427:1 168349:1 172155:1 172249:1 175141:1 175605:1 176782:1 185918:1 186955:1 191404:2 193285:1 194917:1 #
0.0002468701661207003115496017020547 6246:1 8481:1 16596:1 29898:1 36057:1 38168:1 51258:1 51280:1 64460:1 64829:1 66440:1 66600:1 97521:1 105963:2 107715:1 115081:1 119202:1 121823:1 123571:1 131474:2 131613:1 141850:1 148095:1 153844:1 155758:1 156594:1 181264:1 191997:1 200657:1 #
-0.00025019059526950519854043841760927 8890:1 20886:1 30531:1 65552:1 69514:2 71781:2 76895:2 82863:2 86638:2 96261:2 98817:1 99652:1 100283:1 102255:2 103772:1 119678:1 120084:1 123129:2 127172:1 136666:2 140306:1 165722:1 178596:1 179284:1 184040:2 189122:1 203252:1 #
0.0001906558378884900596152152107976 3997:1 5247:1 13836:1 15473:1 18843:1 23655:1 25793:4 33445:1 37718:1 41388:1 51280:1 51341:1 54017:1 60070:1 66462:1 76864:1 77907:1 78848:1 82489:1 83409:1 85001:1 90830:2 99204:1 105963:4 106148:1 110336:1 119063:2 120115:1 124082:2 128650:2 131381:1 147275:1 148095:1 153844:1 165445:1 170163:1 171573:1 174868:1 185961:1 191997:1 192778:1 #
-0.0013999243350781703787433229990711 296:2 709:1 1779:1 1858:1 1908:2 1966:1 2353:1 2453:1 3718:1 8784:1 15403:1 16060:1 16449:1 16812:1 20982:1 21233:1 21289:1 27486:1 27676:1 30220:1 31182:9 31776:1 33133:1 33419:1 36876:1 38033:2 39210:1 40646:1 41458:2 43196:1 44314:1 51280:3 55884:1 57669:1 57804:2 60070:1 60406:1 61385:1 63436:1 66490:2 68821:1 71516:1 72591:10 74563:1 74608:1 75195:1 76864:1 78281:2 79641:1 82060:1 82317:3 84428:1 84895:1 87582:1 88224:1 92788:1 97910:1 98715:3 102285:3 102405:2 102960:1 103832:3 109537:1 110029:1 110336:2 110431:1 110971:2 110985:1 112263:1 112599:1 112791:12 112819:9 115152:1 115296:1 115912:1 118724:1 119063:3 119468:3 124082:1 126835:1 128650:11 130294:1 131418:1 131474:1 134301:1 135524:1 143020:1 146206:1 148095:1 148844:1 151257:1 151764:1 156453:1 157925:1 158599:1 162049:2 162136:1 163846:2 163957:1 164309:2 164334:1 164418:1 164427:12 165298:1 166199:1 166366:1 166954:1 169170:1 169455:1 171874:1 172249:2 172253:12 172275:1 173838:1 175478:1 175860:1 177367:9 178589:1 182456:1 182872:2 187611:1 188252:10 189870:2 190029:1 192778:2 193311:1 193557:1 194205:1 #
-0.0013999243350781703787433229990711 16893:3 27677:1 34227:1 46164:1 75195:1 80945:1 89315:1 105938:1 128321:2 128650:1 128870:1 142784:1 151501:1 154541:1 195497:2 #
-0.0013999243350781703787433229990711 8:2 469:1 1043:1 5872:1 8481:3 9795:1 16648:6 21150:1 21289:1 21737:2 22726:2 26317:2 26480:2 27004:2 27677:1 30605:4 32854:1 37235:1 38425:1 43031:1 43196:1 51280:2 52661:1 57669:1 60070:2 60406:1 62310:1 62644:1 62969:1 67152:1 68054:1 76366:1 79305:2 79641:1 79787:1 82234:1 82317:5 86046:1 88661:1 90195:2 90830:2 92324:5 94532:1 94855:2 96573:1 97430:1 98240:1 98351:1 98715:1 99744:1 101317:1 101955:1 102405:8 102704:1 103206:1 103832:3 105963:5 107861:1 108679:1 109273:1 110030:2 110971:1 111245:1 112653:2 114158:2 114492:1 115971:1 120730:1 122792:2 123571:1 123786:1 124082:2 124991:1 127478:1 127831:1 128650:9 129108:1 131499:1 133334:4 135256:1 139303:1 141920:1 143521:1 143861:1 144862:1 145156:1 148095:5 153086:1 154774:2 155321:1 156137:1 158244:1 160858:1 164427:1 165161:2 165526:7 166103:1 166412:1 167428:1 167457:1 168355:1 171573:1 171877:4 172134:1 172249:1 176861:1 177147:1 178589:2 180061:1 184040:1 184619:1 185367:1 187737:2 192778:1 193522:1 195497:1 202629:1 203181:1 #
-0.0013999243350781703787433229990711 296:2 1779:1 2353:1 2453:1 3718:1 7062:1 8784:1 15981:1 20982:1 21233:1 23928:1 24304:1 27486:1 30220:1 31182:4 32260:1 38033:2 41458:2 44314:1 47193:1 51280:1 55606:1 57669:1 57804:2 60070:2 60406:1 66490:2 71516:1 71982:1 72591:5 74563:1 74608:1 75195:1 76864:1 78281:2 79641:1 82060:1 82317:1 84428:1 87582:1 88224:1 93057:1 96251:2 97430:1 97910:1 98715:2 100652:1 102285:4 102405:2 103832:2 107633:1 109537:1 110336:2 110431:1 112791:7 112819:4 112942:2 113056:1 115296:2 119063:4 119468:4 124082:1 128650:12 130294:1 131474:1 134301:1 134374:1 143020:1 148095:1 151257:1 151764:1 156137:1 157925:1 158599:1 162136:1 163846:2 164309:2 164427:7 165298:1 166199:1 166366:1 166954:1 167921:1 169455:1 172249:2 172253:7 173838:1 175768:2 175860:1 177367:4 182872:2 187611:1 188252:5 192778:2 193311:1 195497:1 203711:1 #
0.0013999243350781703787433229990711 13805:2 14839:1 15308:1 15762:1 23655:1 24865:1 24979:2 26158:1 26317:2 27004:1 27486:1 28589:1 29196:1 36876:1 38015:1 38259:1 40380:1 40761:1 41375:1 42510:2 44744:1 45809:1 46206:1 46491:2 48456:1 51202:1 51280:2 51941:1 58880:1 60377:1 61643:1 62203:3 65065:2 70277:1 73408:1 73509:1 76130:2 77698:1 78925:1 82317:3 82501:1 83721:1 84461:1 84705:1 85638:1 97430:1 97786:1 99764:1 101208:1 102405:4 105250:2 105812:1 107225:1 108625:2 109537:1 110750:1 110762:1 112851:1 114492:1 116722:1 118240:1 119063:2 120989:1 122575:1 122910:1 125266:1 127251:1 128620:1 129597:1 129729:1 133076:1 136803:1 143861:1 145681:1 146833:2 148015:1 154548:1 154963:1 155387:1 157588:1 159271:1 159335:1 160043:2 160727:1 162683:1 162716:1 165883:1 167428:2 167774:1 171874:1 172418:1 173127:1 175300:1 177066:1 177428:1 181774:1 182358:1 182632:1 184183:1 185206:1 185537:1 185688:1 187703:1 187993:1 191548:1 192778:1 194566:1 195280:1 200399:1 203638:1 #
-0.0013999243350781703787433229990711 8784:1 18356:1 29501:1 41973:1 48071:1 48456:1 55435:1 60070:1 70919:2 71929:2 76779:1 77644:1 77907:2 78937:1 79305:1 82317:2 89315:1 91107:1 102255:1 102468:1 116722:1 123571:1 128650:2 165161:1 184606:2 186479:1 199082:1 #
0.0013999243350781703787433229990711 7803:1 8481:1 21150:1 58298:1 60070:9 70699:6 72091:1 72190:1 72823:1 82317:1 99441:1 101620:1 105938:1 115109:1 115971:1 124389:1 138537:1 169734:1 172405:9 179500:9 181375:1 183954:1 186064:1 186479:9 188704:1 #
-0.0013999243350781703787433229990711 5274:1 40512:1 57743:1 60070:1 82317:1 82863:1 105726:1 119503:1 153408:1 186589:1 196850:1 201018:1 #
0.0013999243350781703787433229990711 48:1 400:1 579:1 585:1 673:1 1117:1 1163:1 1841:1 2592:1 3011:1 3489:1 3696:1 4502:1 4638:1 5148:1 6120:1 6571:1 8107:1 8134:1 8932:1 9590:1 9895:1 10265:1 11146:1 11344:1 12759:1 13556:1 15328:1 16387:1 16783:1 16832:1 17034:1 17083:2 18056:1 18701:1 18918:1 19382:1 19870:1 20119:1 20196:1 21150:1 21160:1 21304:1 21674:1 23655:1 26289:1 26311:1 27468:1 27486:1 27663:1 30502:1 30531:1 32390:1 33097:1 33127:1 33140:1 33552:1 36366:1 36751:1 36878:1 37597:1 37850:1 38207:1 38587:1 38866:1 39657:1 39879:1 39970:1 40870:1 40935:1 41793:1 43031:1 43160:1 43868:1 45246:1 45803:1 46070:1 46242:1 46687:1 46993:1 47460:1 48146:1 48263:1 48456:1 48859:1 51155:1 51411:1 51571:1 51827:1 53021:1 54096:1 54754:1 55754:1 55978:1 56244:1 56888:1 58563:1 58684:1 59022:1 59640:1 59752:1 59872:1 60070:1 60917:1 62253:1 62989:1 64380:1 64530:1 64610:1 67697:1 68201:1 68570:1 69142:1 69223:1 70767:1 73031:1 74062:1 77265:1 77588:1 77590:1 77962:1 78954:1 79320:1 79641:1 79972:1 81907:1 82317:2 83676:1 84392:1 84405:1 85459:1 85947:1 86324:1 86688:1 87454:1 87479:1 87482:1 88230:1 88675:1 89061:1 89465:1 89744:1 91480:2 91876:1 92684:1 93012:1 93830:1 94381:1 96197:1 96316:1 97098:1 97786:1 97918:1 98788:1 99160:1 99775:1 100000:1 101191:1 101893:1 101994:1 102290:1 102405:1 102890:1 102940:1 104317:1 104699:1 105619:1 105963:1 108170:1 109528:1 110847:1 110971:1 113000:1 113803:1 114579:1 115086:1 115664:1 115765:1 115986:1 116068:1 116235:1 117030:1 117398:1 118560:1 119272:1 120115:1 120139:1 122143:1 123129:1 123568:1 123571:1 124959:1 125545:1 125565:1 126014:1 126159:1 127651:1 129257:1 129681:1 130437:1 131323:1 131746:1 131952:1 133634:1 134378:1 135218:1 135862:1 138868:1 138875:1 139143:1 139303:1 139732:1 139856:1 139991:1 140327:1 141150:1 141755:1 142335:1 142452:1 142709:1 143521:1 144402:1 148095:4 149708:1 150785:1 152368:1 152402:1 152644:1 153573:1 153596:1 153747:1 153844:1 155841:1 157812:1 159691:1 160194:1 160290:1 160760:1 160830:1 160964:1 162613:1 162809:1 163402:1 163406:1 163484:1 163573:1 163846:1 165812:1 166364:1 166411:1 167293:1 167764:1 167768:1 167975:1 169129:1 169283:1 169455:1 170334:1 171519:1 172130:1 172468:1 172818:1 173490:1 173735:1 173984:1 174279:1 174286:1 175144:1 175638:1 176696:1 176751:1 177363:1 177551:1 177699:1 178893:1 179761:1 181913:1 182057:1 182226:1 182264:1 182272:1 182580:1 184140:1 184378:1 184880:1 185274:1 186066:1 186096:1 186442:1 186860:1 187466:1 187482:1 188491:1 188605:1 188742:1 190011:1 190182:1 190297:1 191694:1 192184:1 193465:1 194219:1 194617:1 194787:1 194951:1 195111:1 195164:1 195186:1 195472:1 196242:1 197468:1 197487:1 197769:1 198106:1 198193:1 198717:1 199062:1 201901:1 201982:1 202242:1 #
0.0013999243350781703787433229990711 185:1 689:1 2460:1 8049:1 8784:1 16596:1 19908:1 20139:1 20892:1 21150:2 23655:2 26642:1 26697:1 27486:1 29690:1 33107:1 35277:1 41232:1 43868:1 44314:1 47187:1 48456:1 55469:1 59033:1 59724:1 60651:1 64031:1 70919:1 71177:1 79641:1 80590:1 82060:1 84309:1 90278:1 91480:1 93991:1 100562:1 102255:1 102405:6 103832:1 105938:2 105963:2 107062:1 107752:1 110079:1 110851:1 110923:1 110971:1 115547:1 120115:2 123129:4 124082:1 128650:3 129587:1 135256:2 135381:1 135933:1 136791:1 148095:3 149746:1 150534:1 158564:1 167002:1 168055:1 169995:1 171874:1 172249:2 173643:1 177539:1 184905:1 186479:1 188773:1 195497:1 196242:1 199419:1 200873:1 202220:1 #
-0.0013084355878272397287476191962696 5247:1 6120:1 16449:1 17294:1 18049:1 18405:1 18475:1 18632:1 19867:1 19983:1 23928:1 24865:1 26017:1 26317:1 26642:1 27486:2 27676:1 30605:1 34240:1 38923:3 39879:1 40471:1 40646:1 45897:1 48456:2 51280:2 51627:1 52266:1 53310:1 57008:3 60070:2 61392:1 62641:1 63423:1 63687:1 64814:1 66859:1 66941:1 67026:11 67892:1 68663:1 68733:2 69389:1 70919:1 71203:1 74290:1 74309:1 75520:1 75726:1 78315:1 78924:1 79222:1 79403:3 79641:2 79938:1 80773:1 81544:1 82060:2 82317:3 84370:1 88050:1 91107:8 91377:1 92918:1 94402:1 96261:1 98180:1 98256:1 98715:1 98889:1 102026:1 102255:2 102405:2 104182:1 105848:1 105938:3 105963:2 106292:1 106319:2 108181:1 109521:1 109537:1 112087:1 112772:1 115655:4 115971:2 116722:1 119063:3 119275:1 123129:1 124082:3 124380:1 125692:2 126232:1 127011:1 128321:2 128650:3 128985:1 129444:1 134589:1 140222:2 145013:1 148095:1 152753:6 155235:1 156878:1 158564:1 161385:2 161480:1 161993:1 162192:1 163287:1 165187:1 165904:1 167811:1 168055:1 168665:1 175768:1 176782:2 178589:3 181922:1 182681:1 185206:1 187815:1 188414:1 188704:1 188745:1 189291:2 189870:1 190028:2 190263:7 191997:1 192093:1 192168:1 195497:2 195547:1 198691:1 198972:1 199642:1 201094:1 #
-0.00073658378899539740918694930016386 22026:1 22281:1 25435:1 29035:1 29898:1 31887:1 32854:1 34057:1 38425:1 40256:1 52854:1 60070:1 62751:1 70572:1 75156:1 76327:3 76366:1 76968:1 77562:1 80906:1 82161:1 91107:1 102243:1 102405:2 105938:1 105963:1 110923:1 110971:1 115446:1 115912:1 119934:1 121516:1 123571:1 124430:1 124991:1 130691:1 138875:1 139751:1 141658:1 141716:1 148095:1 150874:1 170070:1 172249:1 178589:1 181350:1 185834:1 186479:1 192778:1 193765:1 195053:1 196035:1 198170:1 #
0.0013999243350781703787433229990711 8933:1 9478:1 17419:1 17910:1 18444:1 19402:1 23374:1 26317:3 26569:1 26825:1 27677:3 28124:1 33888:1 34005:1 45372:4 46022:1 46773:2 47187:1 48200:1 50116:1 51001:1 51280:1 51678:1 52681:1 57589:1 60070:2 60406:2 65425:1 68905:1 69395:1 70287:1 70804:2 72955:1 79305:1 81390:2 81455:1 82060:1 82317:5 82645:1 85189:2 88244:1 89285:1 90417:1 90707:1 91820:2 93141:1 97430:2 98715:1 101661:1 102405:2 103832:1 108430:1 113056:1 115818:1 116136:1 119063:1 120115:1 120477:1 122000:1 124082:1 124991:1 127198:1 127616:1 128650:6 130294:2 130306:1 131474:1 134231:3 135784:1 137797:1 139808:1 140358:1 140558:1 140782:1 141128:1 144553:1 146016:1 147326:1 147338:1 149578:5 149723:2 154276:1 156137:1 157320:2 158048:1 160043:1 164427:1 167378:1 168248:1 171573:4 171874:1 172418:1 173031:1 173349:1 181287:1 184500:1 185206:1 185514:1 191000:1 193522:2 197424:1 203384:1 #
-0.0010684750931716814614791388748927 3814:3 10023:4 12186:1 15308:1 17979:2 20139:1 23154:1 23805:1 24404:1 26642:3 36662:1 37293:1 38039:1 44201:1 45824:1 57956:2 59125:1 60070:1 60357:1 61884:2 68487:1 72429:2 73932:1 79641:2 82317:1 88154:1 88874:1 91480:1 98266:1 98801:4 102405:3 102543:1 107948:1 113635:1 115971:9 116626:2 119063:9 121097:1 123129:10 124380:7 127601:1 128841:1 131086:1 131944:1 132058:1 136352:1 137144:2 138875:2 143655:9 146678:1 148095:1 150901:1 152460:1 155726:1 159884:2 170841:1 171809:1 175663:1 175768:3 177977:1 178589:1 180701:3 185308:1 185360:1 185477:1 186479:2 187150:1 189870:2 195053:2 197059:3 198170:1 200183:1 202985:1 #
-0.0013999243350781703787433229990711 8049:1 15308:2 22939:1 27486:1 51280:1 60070:2 68637:1 83871:1 91689:1 107715:1 109537:1 115655:1 120707:1 123129:2 127480:1 127537:1 128650:2 129399:1 135928:1 146678:1 148095:1 151841:2 154238:2 174108:1 175768:1 178589:1 183327:1 191997:1 192778:1 #
0.0013999243350781703787433229990711 5215:1 6939:1 12170:1 16231:1 26317:1 34131:1 49279:1 51678:1 60070:1 65135:1 71501:1 82317:1 86991:1 90707:1 95106:1 103620:1 105720:1 105938:1 112087:2 113056:1 119063:2 128085:1 128650:2 131075:1 141723:1 159077:1 159475:1 159882:1 164427:1 173838:1 176706:1 179805:1 187417:1 195497:3 202830:1 #
0.0013999243350781703787433229990711 2325:1 2353:1 2629:2 8402:1 9958:1 13682:1 13999:6 14256:2 16308:1 18110:1 20170:1 20493:1 23960:1 26352:6 26642:1 27572:1 29784:2 29898:1 35076:1 35452:1 52169:1 52484:1 54057:1 56104:1 59092:1 60070:1 65363:1 65422:1 69492:1 76595:1 77280:2 79554:1 81050:1 82166:1 85495:2 87232:1 87398:1 89347:1 89450:1 90732:1 94153:1 97430:1 98023:2 100952:1 101367:2 102056:2 102473:2 105938:1 106917:1 107506:1 109260:1 112498:1 112791:2 114736:2 115019:2 117852:1 122425:1 126022:1 137282:1 137851:1 142102:1 149698:1 152460:3 155364:1 156073:1 157890:1 164427:5 167499:1 170186:1 171734:1 172253:7 172433:1 172514:1 177407:1 180774:1 181350:1 186297:1 199124:1 201966:1 202221:1 203726:2 #
-0.0013999243350781703787433229990711 1264:1 2304:1 3546:1 4334:1 13909:1 19921:1 26120:2 26317:6 26726:1 27642:1 32591:1 33748:1 38015:2 38070:1 40761:1 42091:1 43583:1 44174:2 45640:2 48554:1 51280:3 51440:1 53842:2 54604:1 57051:1 60070:1 60651:1 61997:1 68620:1 75156:1 76864:3 78557:1 78932:2 79305:2 79641:1 81943:1 82060:2 82317:3 82953:1 85495:1 87549:1 91107:1 91480:3 92929:1 97687:1 98180:1 101041:1 102405:1 103832:1 105938:3 109537:1 114731:1 114900:1 115655:1 115971:1 117855:3 119063:4 123129:1 123571:5 124082:3 124380:2 128650:10 129017:1 130532:3 131327:1 131655:1 131944:1 132165:1 133985:1 134378:2 135113:1 135256:1 138183:1 138451:1 139808:1 141355:1 141578:1 146077:1 146855:1 147132:1 148095:1 149723:2 149990:1 153639:1 153844:1 154501:1 157588:2 160756:1 161952:1 163287:1 171573:2 172249:1 175768:1 175860:1 177539:1 178589:1 184265:1 186479:3 190028:1 192035:1 192957:1 195497:1 199128:1 #
0.00042587191891458545806026236846265 1211:1 3728:1 7342:1 8049:1 13836:4 14556:2 17065:1 19983:1 28900:1 30313:1 30579:1 40297:1 41888:1 43003:1 46627:1 51280:2 54672:1 59124:1 60070:1 62862:1 63073:1 63556:3 64362:1 65067:1 65425:1 69389:1 74895:3 76661:5 78121:2 78531:1 78848:1 79305:2 79641:1 80767:1 82317:5 82336:1 84777:1 88541:2 88918:2 91689:1 94594:1 98715:2 99109:1 102255:2 102405:1 103832:2 104407:1 105938:3 105963:1 108170:1 108718:1 108987:1 110481:1 110762:1 112791:2 116262:1 117353:2 119063:2 119393:1 120115:1 123129:7 124380:4 128650:9 129201:5 129202:1 131474:1 132058:1 134018:1 135330:5 136033:1 137478:1 138348:2 138875:1 140563:2 143986:2 148058:2 164427:3 171573:1 172249:1 172253:3 172894:1 175447:2 181329:1 181905:1 182810:1 186479:1 187441:1 188904:1 189584:1 192778:1 192887:1 195497:4 197416:1 201301:1 202221:1 202937:2 203815:1 #
-0.0013999243350781703787433229990711 26642:1 54672:3 55161:1 58877:8 64269:1 67939:1 84370:1 84777:3 95104:1 96251:1 99159:1 99586:5 102255:1 102405:8 105963:1 112897:1 126074:1 128650:1 136033:1 162049:5 164174:1 175768:1 187742:2 189870:1 192778:1 195497:1 202926:1 #
-0.0013999243350781703787433229990711 8:1 2075:1 5247:1 10237:1 15981:2 18170:1 20570:1 22492:2 23655:1 24383:7 26317:1 26697:1 26737:1 27486:2 27677:2 38664:1 39356:1 40971:2 44847:1 46773:1 47996:2 52661:1 54017:1 55061:1 58880:1 60070:1 66740:1 68637:1 68860:1 78811:1 79972:1 82060:1 82317:2 88224:1 90303:1 92990:3 95371:2 98715:1 101466:1 102405:8 103832:2 105938:2 105963:3 112791:1 113734:1 114492:1 114810:1 115912:1 116722:1 119852:1 121976:1 124959:1 128650:3 128695:1 134378:1 138397:1 141304:1 142867:1 147212:2 147326:1 148015:2 148095:3 150439:1 155726:1 156200:1 160022:1 163402:1 164427:2 165161:1 166007:1 166199:2 171573:1 171840:1 171874:1 172134:3 174858:1 177366:1 178270:1 178589:1 179952:1 186479:3 188745:2 193765:1 195497:1 #
-0.0013999243350781703787433229990711 2432:2 8481:2 14951:1 15066:1 20119:1 23655:1 24796:3 26120:3 26317:1 28803:1 33048:1 41478:1 45664:1 46164:1 47569:1 51280:1 55606:2 57743:2 59724:1 62279:1 63687:1 65500:2 65670:1 68076:1 73693:1 78531:3 78835:1 79305:1 79972:1 82317:3 83030:1 83596:1 84078:1 86445:1 89646:1 90915:1 91480:1 96671:1 102405:5 103832:1 105938:4 105963:4 108987:1 110497:1 118620:1 122953:1 123571:2 124082:1 124737:1 128650:3 128991:1 132058:1 134378:2 139452:1 139732:1 140236:1 148058:1 148095:1 149281:1 151501:1 152737:1 153844:2 155321:3 155726:1 165672:1 166655:2 170141:1 172673:1 172926:1 180284:1 180862:1 186479:1 186484:2 191480:1 196858:1 199441:1 201797:1 #
-0.0013999243350781703787433229990711 2610:5 3607:1 16648:1 18444:1 20119:1 21889:2 23495:1 25452:4 27486:1 28035:1 30220:1 30323:3 30503:2 31260:3 31765:2 32983:1 33395:5 34057:1 34184:3 36954:2 41232:1 41972:1 42260:1 45820:3 46206:2 48456:1 50570:5 51280:1 55606:1 57654:1 57698:2 57743:2 57908:1 59590:1 59724:1 60070:1 61680:1 62679:1 66711:1 67266:1 67718:1 68136:1 72735:1 73282:3 77265:2 79938:4 82317:7 83596:1 85638:1 91105:1 92859:1 95987:1 96261:8 97188:2 97430:1 98674:4 99744:1 100363:1 101545:1 102405:2 104169:1 104347:1 105622:2 105938:5 106988:1 107506:1 108707:2 113364:1 115113:4 119063:2 119210:2 119297:1 121138:1 121416:1 123571:1 124430:1 127564:1 128321:1 128650:1 131474:1 132121:1 135843:1 137144:1 138982:2 139301:1 142704:3 143011:1 143943:1 149644:1 150862:1 151717:1 153844:1 154152:2 154995:1 155321:1 156281:5 156878:1 157213:3 158244:1 158415:1 164427:1 165105:3 165150:1 167377:1 170169:1 171573:1 171874:1 172502:1 173930:1 175768:3 176236:1 180362:2 190028:1 192303:1 192778:1 194129:2 194553:5 195216:3 196473:1 197830:3 198996:1 199642:2 200217:1 203726:1 #
